{"learner":{"attributes":{"scikit_learn":"{\"_estimator_type\": \"classifier\"}"},"feature_names":[],"feature_types":[],"gradient_booster":{"model":{"cats":{"enc":[],"feature_segments":[],"sorted_idx":[]},"gbtree_model_param":{"num_parallel_tree":"1","num_trees":"150"},"iteration_indptr":[0,1,2,3,4,5,6,7,8,9,10,11,12,13,14,15,16,17,18,19,20,21,22,23,24,25,26,27,28,29,30,31,32,33,34,35,36,37,38,39,40,41,42,43,44,45,46,47,48,49,50,51,52,53,54,55,56,57,58,59,60,61,62,63,64,65,66,67,68,69,70,71,72,73,74,75,76,77,78,79,80,81,82,83,84,85,86,87,88,89,90,91,92,93,94,95,96,97,98,99,100,101,102,103,104,105,106,107,108,109,110,111,112,113,114,115,116,117,118,119,120,121,122,123,124,125,126,127,128,129,130,131,132,133,134,135,136,137,138,139,140,141,142,143,144,145,146,147,148,149,150],"tree_info":[0,0,0,0,0,0,0,0,0,0,0,0,0,0,0,0,0,0,0,0,0,0,0,0,0,0,0,0,0,0,0,0,0,0,0,0,0,0,0,0,0,0,0,0,0,0,0,0,0,0,0,0,0,0,0,0,0,0,0,0,0,0,0,0,0,0,0,0,0,0,0,0,0,0,0,0,0,0,0,0,0,0,0,0,0,0,0,0,0,0,0,0,0,0,0,0,0,0,0,0,0,0,0,0,0,0,0,0,0,0,0,0,0,0,0,0,0,0,0,0,0,0,0,0,0,0,0,0,0,0,0,0,0,0,0,0,0,0,0,0,0,0,0,0,0,0,0,0,0,0],"trees":[{"base_weights":[3.8121E-2,-1.1766008E0,1.4342533E0,-7.3969066E-2,-7.877365E-3,2.9633889E-2,8.3113484E-2],"categories":[],"categories_nodes":[],"categories_segments":[],"categories_sizes":[],"default_left":[0,0,0,0,0,0,0],"id":0,"left_children":[1,3,5,-1,-1,-1,-1],"loss_changes":[7.51289E1,5.9636497E0,8.8248444E-1,0E0,0E0,0E0,0E0],"parents":[2147483647,0,0,1,1,2,2],"right_children":[2,4,6,-1,-1,-1,-1],"split_conditions":[2E-3,-1.94E-1,3.84E-2,-7.3969066E-2,-7.877365E-3,2.9633889E-2,8.3113484E-2],"split_indices":[10,34,10,0,0,0,0],"split_type":[0,0,0,0,0,0,0],"sum_hessian":[4.02339E1,2.14914E1,1.87425E1,1.54938E1,5.9976E0,5.9976E0,1.27449E1],"tree_param":{"num_deleted":"0","num_feature":"36","num_nodes":"7","size_leaf_vector":"1"}},{"base_weights":[8.2622305E-2,-1.0761659E0,7.411038E-2,-6.929067E-2,-9.96036E-3],"categories":[],"categories_nodes":[],"categories_segments":[],"categories_sizes":[],"default_left":[0,0,0,0,0],"id":1,"left_children":[1,3,-1,-1,-1],"loss_changes":[6.8587944E1,4.8885384E0,0E0,0E0,0E0],"parents":[2147483647,0,0,1,1],"right_children":[2,4,-1,-1,-1],"split_conditions":[9.4E-2,-1.68E-1,7.411038E-2,-6.929067E-2,-9.96036E-3],"split_indices":[6,34,0,0,0],"split_type":[0,0,0,0,0],"sum_hessian":[3.819842E1,2.0954245E1,1.7244177E1,1.4207157E1,6.7470884E0],"tree_param":{"num_deleted":"0","num_feature":"36","num_nodes":"5","size_leaf_vector":"1"}},{"base_weights":[7.194905E-2,-8.8085043E-1,6.841608E-2,-6.1728995E-2,-0E0],"categories":[],"categories_nodes":[],"categories_segments":[],"categories_sizes":[],"default_left":[0,0,0,0,0],"id":2,"left_children":[1,3,-1,-1,-1],"loss_changes":[5.0619667E1,7.591778E0,0E0,0E0,0E0],"parents":[2147483647,0,0,1,1],"right_children":[2,4,-1,-1,-1],"split_conditions":[1.34E-1,-1.68E-1,6.841608E-2,-6.1728995E-2,-0E0],"split_indices":[6,34,0,0,0],"split_type":[0,0,0,0,0],"sum_hessian":[3.6832592E1,2.1376669E1,1.5455924E1,1.4880911E1,6.4957585E0],"tree_param":{"num_deleted":"0","num_feature":"36","num_nodes":"5","size_leaf_vector":"1"}},{"base_weights":[-1.337691E-2,-9.8154634E-1,6.9454625E-2,-1.2142206E0,-1.250157E-2,-2.417027E-2,-7.058131E-2],"categories":[],"categories_nodes":[],"categories_segments":[],"categories_sizes":[],"default_left":[0,0,0,0,0,0,0],"id":3,"left_children":[1,3,-1,5,-1,-1,-1],"loss_changes":[6.0734085E1,3.212822E0,0E0,4.6540833E-1,0E0,0E0,0E0],"parents":[2147483647,0,0,1,1,3,3],"right_children":[2,4,-1,6,-1,-1,-1],"split_conditions":[1.68E-1,-1.6E-1,6.9454625E-2,5.238E-1,-1.250157E-2,-2.417027E-2,-7.058131E-2],"split_indices":[34,34,0,35,0,0,0],"split_type":[0,0,0,0,0,0,0],"sum_hessian":[4.087063E1,2.4745083E1,1.6125547E1,1.725386E1,7.4912214E0,5.6749773E0,1.1578883E1],"tree_param":{"num_deleted":"0","num_feature":"36","num_nodes":"7","size_leaf_vector":"1"}},{"base_weights":[4.057849E-2,-8.74183E-1,6.986825E-2,-6.048724E-2,-1.1644682E-3],"categories":[],"categories_nodes":[],"categories_segments":[],"categories_sizes":[],"default_left":[0,0,0,0,0],"id":4,"left_children":[1,3,-1,-1,-1],"loss_changes":[5.5922222E1,6.928192E0,0E0,0E0,0E0],"parents":[2147483647,0,0,1,1],"right_children":[2,4,-1,-1,-1],"split_conditions":[1.68E-1,-1.6E-1,6.986825E-2,-6.048724E-2,-1.1644682E-3],"split_indices":[34,34,0,0,0],"split_type":[0,0,0,0,0],"sum_hessian":[4.0878075E1,2.4621107E1,1.6256968E1,1.6631252E1,7.989855E0],"tree_param":{"num_deleted":"0","num_feature":"36","num_nodes":"5","size_leaf_vector":"1"}},{"base_weights":[-2.200744E-2,-9.4837004E-1,6.7510985E-2,-1.1618608E0,-1.2103754E-2,-2.1232676E-2,-6.766794E-2],"categories":[],"categories_nodes":[],"categories_segments":[],"categories_sizes":[],"default_left":[0,0,0,0,0,0,0],"id":5,"left_children":[1,3,-1,5,-1,-1,-1],"loss_changes":[5.828714E1,2.9059181E0,0E0,8.087559E-1,0E0,0E0,0E0],"parents":[2147483647,0,0,1,1,3,3],"right_children":[2,4,-1,6,-1,-1,-1],"split_conditions":[1.68E-1,-1.6E-1,6.7510985E-2,5.238E-1,-1.2103754E-2,-2.1232676E-2,-6.766794E-2],"split_indices":[34,34,0,35,0,0,0],"split_type":[0,0,0,0,0,0,0],"sum_hessian":[4.199617E1,2.565747E1,1.63387E1,1.8167938E1,7.489532E0,5.611495E0,1.2556444E1],"tree_param":{"num_deleted":"0","num_feature":"36","num_nodes":"7","size_leaf_vector":"1"}},{"base_weights":[1.33471945E-2,-8.8733095E-1,6.3256204E-2,-1.2414606E-2,-6.1285716E-2],"categories":[],"categories_nodes":[],"categories_segments":[],"categories_sizes":[],"default_left":[0,0,0,0,0],"id":6,"left_children":[1,3,-1,-1,-1],"loss_changes":[4.8604866E1,4.0082016E0,0E0,0E0,0E0],"parents":[2147483647,0,0,1,1],"right_children":[2,4,-1,-1,-1],"split_conditions":[1.34E-1,5.238E-1,6.3256204E-2,-1.2414606E-2,-6.1285716E-2],"split_indices":[6,35,0,0,0],"split_type":[0,0,0,0,0],"sum_hessian":[3.8951595E1,2.2758942E1,1.6192654E1,9.5911455E0,1.3167797E1],"tree_param":{"num_deleted":"0","num_feature":"36","num_nodes":"5","size_leaf_vector":"1"}},{"base_weights":[-3.3384915E-2,-8.041905E-1,5.8149885E-2,-5.1957455E-2,-9.6566527E-4],"categories":[],"categories_nodes":[],"categories_segments":[],"categories_sizes":[],"default_left":[0,0,0,0,0],"id":7,"left_children":[1,3,-1,-1,-1],"loss_changes":[3.8679626E1,4.1940613E0,0E0,0E0,0E0],"parents":[2147483647,0,0,1,1],"right_children":[2,4,-1,-1,-1],"split_conditions":[1.68E-1,-8.6E-2,5.8149885E-2,-5.1957455E-2,-9.6566527E-4],"split_indices":[34,34,0,0,0],"split_type":[0,0,0,0,0],"sum_hessian":[3.81099E1,2.3830158E1,1.4279742E1,1.7351034E1,6.479124E0],"tree_param":{"num_deleted":"0","num_feature":"36","num_nodes":"5","size_leaf_vector":"1"}},{"base_weights":[7.001023E-2,-7.516707E-1,5.882013E-2,-5.3998925E-2,-0E0],"categories":[],"categories_nodes":[],"categories_segments":[],"categories_sizes":[],"default_left":[0,0,0,0,0],"id":8,"left_children":[1,3,-1,-1,-1],"loss_changes":[3.8099148E1,5.8623886E0,0E0,0E0,0E0],"parents":[2147483647,0,0,1,1],"right_children":[2,4,-1,-1,-1],"split_conditions":[1.68E-1,-1.6E-1,5.882013E-2,-5.3998925E-2,-0E0],"split_indices":[34,34,0,0,0],"split_type":[0,0,0,0,0],"sum_hessian":[3.772961E1,2.175913E1,1.5970482E1,1.4535731E1,7.2233977E0],"tree_param":{"num_deleted":"0","num_feature":"36","num_nodes":"5","size_leaf_vector":"1"}},{"base_weights":[-5.2408553E-3,-8.7515265E-1,5.8257043E-2,-1.4174669E-2,-5.8283854E-2],"categories":[],"categories_nodes":[],"categories_segments":[],"categories_sizes":[],"default_left":[0,0,0,0,0],"id":9,"left_children":[1,3,-1,-1,-1],"loss_changes":[4.399567E1,2.9303265E0,0E0,0E0,0E0],"parents":[2147483647,0,0,1,1],"right_children":[2,4,-1,-1,-1],"split_conditions":[1.43E-2,5.238E-1,5.8257043E-2,-1.4174669E-2,-5.8283854E-2],"split_indices":[10,35,0,0,0],"split_type":[0,0,0,0,0],"sum_hessian":[3.9351658E1,2.310791E1,1.6243748E1,9.478125E0,1.3629785E1],"tree_param":{"num_deleted":"0","num_feature":"36","num_nodes":"5","size_leaf_vector":"1"}},{"base_weights":[-0E0,-7.382416E-1,5.5218156E-2,-4.9937673E-2,-6.369012E-3],"categories":[],"categories_nodes":[],"categories_segments":[],"categories_sizes":[],"default_left":[0,0,0,0,0],"id":10,"left_children":[1,3,-1,-1,-1],"loss_changes":[3.5567253E1,3.3484373E0,0E0,0E0,0E0],"parents":[2147483647,0,0,1,1],"right_children":[2,4,-1,-1,-1],"split_conditions":[1.68E-1,-1.6E-1,5.5218156E-2,-4.9937673E-2,-6.369012E-3],"split_indices":[34,34,0,0,0],"split_type":[0,0,0,0,0],"sum_hessian":[3.964292E1,2.4178446E1,1.5464474E1,1.5485782E1,8.692665E0],"tree_param":{"num_deleted":"0","num_feature":"36","num_nodes":"5","size_leaf_vector":"1"}},{"base_weights":[-5.8838412E-2,-9.8101974E-1,4.948331E-2,-5.984999E-2,-1.2567319E-2],"categories":[],"categories_nodes":[],"categories_segments":[],"categories_sizes":[],"default_left":[0,0,0,0,0],"id":11,"left_children":[1,3,-1,-1,-1],"loss_changes":[3.737943E1,1.9458237E0,0E0,0E0,0E0],"parents":[2147483647,0,0,1,1],"right_children":[2,4,-1,-1,-1],"split_conditions":[3.6E-2,4.193E0,4.948331E-2,-5.984999E-2,-1.2567319E-2],"split_indices":[34,5,0,0,0],"split_type":[0,0,0,0,0],"sum_hessian":[3.4654846E1,1.8760338E1,1.5894508E1,1.2958518E1,5.8018203E0],"tree_param":{"num_deleted":"0","num_feature":"36","num_nodes":"5","size_leaf_vector":"1"}},{"base_weights":[4.9134053E-2,-6.002711E-1,5.6673735E-2,-8.8501775E-1,-0E0,-5.7091642E-2,-1.6189927E-2],"categories":[],"categories_nodes":[],"categories_segments":[],"categories_sizes":[],"default_left":[0,0,0,0,0,0,0],"id":12,"left_children":[1,3,-1,5,-1,-1,-1],"loss_changes":[2.9146193E1,4.178133E0,0E0,9.847317E-1,0E0,0E0,0E0],"parents":[2147483647,0,0,1,1,3,3],"right_children":[2,4,-1,6,-1,-1,-1],"split_conditions":[1.68E-1,-1.6E-1,5.6673735E-2,8.7E0,-0E0,-5.7091642E-2,-1.6189927E-2],"split_indices":[34,34,0,24,0,0,0],"split_type":[0,0,0,0,0,0,0],"sum_hessian":[3.707942E1,2.346068E1,1.3618736E1,1.5047119E1,8.413562E0,8.292445E0,6.754674E0],"tree_param":{"num_deleted":"0","num_feature":"36","num_nodes":"7","size_leaf_vector":"1"}},{"base_weights":[3.944106E-2,-4.5281734E-2,7.3238885E-1,-0E0,4.8738517E-2],"categories":[],"categories_nodes":[],"categories_segments":[],"categories_sizes":[],"default_left":[0,0,0,0,0],"id":13,"left_children":[1,-1,3,-1,-1],"loss_changes":[2.572057E1,0E0,3.6140738E0,0E0,0E0],"parents":[2147483647,0,0,2,2],"right_children":[2,-1,4,-1,-1],"split_conditions":[-1.6E-1,-4.5281734E-2,1.34E-1,-0E0,4.8738517E-2],"split_indices":[34,0,6,0,0],"split_type":[0,0,0,0,0],"sum_hessian":[3.538141E1,1.44027815E1,2.0978626E1,6.2031684E0,1.4775457E1],"tree_param":{"num_deleted":"0","num_feature":"36","num_nodes":"5","size_leaf_vector":"1"}},{"base_weights":[-8.3669774E-2,-7.3267424E-1,5.1967096E-2,-4.7643848E-2,-8.0505535E-3],"categories":[],"categories_nodes":[],"categories_segments":[],"categories_sizes":[],"default_left":[0,0,0,0,0],"id":14,"left_children":[1,3,-1,-1,-1],"loss_changes":[2.7359615E1,2.1642008E0,0E0,0E0,0E0],"parents":[2147483647,0,0,1,1],"right_children":[2,4,-1,-1,-1],"split_conditions":[3.03E-1,1.02E0,5.1967096E-2,-4.7643848E-2,-8.0505535E-3],"split_indices":[6,33,0,0,0],"split_type":[0,0,0,0,0],"sum_hessian":[3.3659355E1,2.205427E1,1.1605084E1,1.4327157E1,7.7271132E0],"tree_param":{"num_deleted":"0","num_feature":"36","num_nodes":"5","size_leaf_vector":"1"}},{"base_weights":[-1.7643439E-2,-6.4664954E-1,5.4883845E-2,-8.143613E-1,-5.011451E-4,-1.295315E-2,-5.108421E-2],"categories":[],"categories_nodes":[],"categories_segments":[],"categories_sizes":[],"default_left":[0,0,0,0,0,0,0],"id":15,"left_children":[1,3,-1,5,-1,-1,-1],"loss_changes":[2.675022E1,2.2233753E0,0E0,1.0190544E0,0E0,0E0,0E0],"parents":[2147483647,0,0,1,1,3,3],"right_children":[2,4,-1,6,-1,-1,-1],"split_conditions":[3.16E-1,-2E-3,5.4883845E-2,5.238E-1,-5.011451E-4,-1.295315E-2,-5.108421E-2],"split_indices":[6,30,0,35,0,0,0],"split_type":[0,0,0,0,0,0,0],"sum_hessian":[3.4428413E1,2.2837496E1,1.1590916E1,1.7012106E1,5.825391E0,6.5035844E0,1.0508521E1],"tree_param":{"num_deleted":"0","num_feature":"36","num_nodes":"7","size_leaf_vector":"1"}},{"base_weights":[2.3246711E-2,-5.3325295E-1,7.807654E-1,-2.3018622E-3,-4.034852E-2,7.927841E-3,4.968901E-2],"categories":[],"categories_nodes":[],"categories_segments":[],"categories_sizes":[],"default_left":[0,0,0,0,0,0,0],"id":16,"left_children":[1,3,5,-1,-1,-1,-1],"loss_changes":[1.5583649E1,2.274517E0,1.2143526E0,0E0,0E0,0E0,0E0],"parents":[2147483647,0,0,1,1,2,2],"right_children":[2,4,6,-1,-1,-1,-1],"split_conditions":[1.34E-1,5.238E-1,3.89E-2,-2.3018622E-3,-4.034852E-2,7.927841E-3,4.968901E-2],"split_indices":[6,35,10,0,0,0,0],"split_type":[0,0,0,0,0,0,0],"sum_hessian":[3.2697884E1,1.8810839E1,1.3887042E1,8.264016E0,1.05468235E1,5.0301375E0,8.856905E0],"tree_param":{"num_deleted":"0","num_feature":"36","num_nodes":"7","size_leaf_vector":"1"}},{"base_weights":[-0E0,-6.975568E-1,7.76607E-1,-4.2636953E-2,-9.476559E-3,5.244224E-2,1.5299257E-3],"categories":[],"categories_nodes":[],"categories_segments":[],"categories_sizes":[],"default_left":[0,0,0,0,0,0,0],"id":17,"left_children":[1,3,5,-1,-1,-1,-1],"loss_changes":[1.9950272E1,7.0703316E-1,2.889678E0,0E0,0E0,0E0,0E0],"parents":[2147483647,0,0,1,1,2,2],"right_children":[2,4,6,-1,-1,-1,-1],"split_conditions":[3E-3,4.118E0,4.291E0,-4.2636953E-2,-9.476559E-3,5.244224E-2,1.5299257E-3],"split_indices":[30,5,4,0,0,0,0],"split_type":[0,0,0,0,0,0,0],"sum_hessian":[3.2880817E1,1.767881E1,1.5202008E1,1.1748749E1,5.930062E0,1.0051746E1,5.1502614E0],"tree_param":{"num_deleted":"0","num_feature":"36","num_nodes":"7","size_leaf_vector":"1"}},{"base_weights":[-0E0,-6.072388E-1,5.02455E-2,-5.165642E-2,-1.0531329E-1,1.8765293E-2,-2.6803855E-2],"categories":[],"categories_nodes":[],"categories_segments":[],"categories_sizes":[],"default_left":[0,0,0,0,0,0,0],"id":18,"left_children":[1,3,-1,-1,5,-1,-1],"loss_changes":[2.2992136E1,4.212837E0,0E0,0E0,3.2781043E0,0E0,0E0],"parents":[2147483647,0,0,1,1,4,4],"right_children":[2,4,-1,-1,6,-1,-1],"split_conditions":[1.68E-1,8.7E0,5.02455E-2,-5.165642E-2,5.939E-1,1.8765293E-2,-2.6803855E-2],"split_indices":[34,24,0,0,8,0,0],"split_type":[0,0,0,0,0,0,0],"sum_hessian":[3.361639E1,2.1388607E1,1.2227783E1,9.886757E0,1.1501851E1,5.0094166E0,6.4924345E0],"tree_param":{"num_deleted":"0","num_feature":"36","num_nodes":"7","size_leaf_vector":"1"}},{"base_weights":[-4.597356E-2,-7.4426323E-1,6.697362E-1,-4.5377888E-2,-9.354667E-3,6.280355E-3,5.1114906E-2],"categories":[],"categories_nodes":[],"categories_segments":[],"categories_sizes":[],"default_left":[0,0,0,0,0,0,0],"id":19,"left_children":[1,3,5,-1,-1,-1,-1],"loss_changes":[1.8565592E1,8.46879E-1,2.6266336E0,0E0,0E0,0E0,0E0],"parents":[2147483647,0,0,1,1,2,2],"right_children":[2,4,6,-1,-1,-1,-1],"split_conditions":[-2E-3,2.95E-1,3.84E-2,-4.5377888E-2,-9.354667E-3,6.280355E-3,5.1114906E-2],"split_indices":[30,31,10,0,0,0,0],"split_type":[0,0,0,0,0,0,0],"sum_hessian":[3.307876E1,1.705636E1,1.6022398E1,1.1523837E1,5.532522E0,7.9238276E0,8.098571E0],"tree_param":{"num_deleted":"0","num_feature":"36","num_nodes":"7","size_leaf_vector":"1"}},{"base_weights":[9.364626E-3,-4.7743756E-1,4.424339E-2,-7.671005E-1,-0E0,-5.0367564E-2,-1.0166157E-2],"categories":[],"categories_nodes":[],"categories_segments":[],"categories_sizes":[],"default_left":[0,0,0,0,0,0,0],"id":20,"left_children":[1,3,-1,5,-1,-1,-1],"loss_changes":[1.589313E1,3.524405E0,0E0,1.0196419E0,0E0,0E0,0E0],"parents":[2147483647,0,0,1,1,3,3],"right_children":[2,4,-1,6,-1,-1,-1],"split_conditions":[1.68E-1,-1.68E-1,4.424339E-2,8.7E0,-0E0,-5.0367564E-2,-1.0166157E-2],"split_indices":[34,34,0,24,0,0,0],"split_type":[0,0,0,0,0,0,0],"sum_hessian":[3.2830093E1,2.131606E1,1.1514032E1,1.3021371E1,8.294689E0,7.40522E0,5.6161504E0],"tree_param":{"num_deleted":"0","num_feature":"36","num_nodes":"7","size_leaf_vector":"1"}},{"base_weights":[5.881393E-2,-5.228037E-1,4.320345E-2,1.5192897E-3,-4.1878875E-2],"categories":[],"categories_nodes":[],"categories_segments":[],"categories_sizes":[],"default_left":[0,0,0,0,0],"id":21,"left_children":[1,3,-1,-1,-1],"loss_changes":[1.5982172E1,3.8269444E0,0E0,0E0,0E0],"parents":[2147483647,0,0,1,1],"right_children":[2,4,-1,-1,-1],"split_conditions":[1.34E-1,5.238E-1,4.320345E-2,1.5192897E-3,-4.1878875E-2],"split_indices":[6,35,0,0,0],"split_type":[0,0,0,0,0],"sum_hessian":[2.9830986E1,1.7367458E1,1.2463528E1,6.3776846E0,1.0989774E1],"tree_param":{"num_deleted":"0","num_feature":"36","num_nodes":"5","size_leaf_vector":"1"}},{"base_weights":[1.21355414E-1,-3.2385495E-1,4.9075242E-2,-3.885955E-2,3.2727074E-2,3.246369E-2,-2.2838429E-2],"categories":[],"categories_nodes":[],"categories_segments":[],"categories_sizes":[],"default_left":[0,0,0,0,0,0,0],"id":22,"left_children":[1,3,-1,-1,5,-1,-1],"loss_changes":[1.4198565E1,4.2853584E0,0E0,0E0,5.118319E0,0E0,0E0],"parents":[2147483647,0,0,1,1,4,4],"right_children":[2,4,-1,-1,6,-1,-1],"split_conditions":[3.16E-1,8.7E0,4.9075242E-2,-3.885955E-2,5.939E-1,3.246369E-2,-2.2838429E-2],"split_indices":[6,24,0,0,8,0,0],"split_type":[0,0,0,0,0,0,0],"sum_hessian":[3.255829E1,2.1892494E1,1.0665793E1,9.217294E0,1.2675201E1,5.772744E0,6.902457E0],"tree_param":{"num_deleted":"0","num_feature":"36","num_nodes":"7","size_leaf_vector":"1"}},{"base_weights":[-1.161791E-2,-6.0837877E-1,5.711467E-1,-3.975177E-2,-1.5643977E-3,2.377266E-3,4.4148725E-2],"categories":[],"categories_nodes":[],"categories_segments":[],"categories_sizes":[],"default_left":[0,0,0,0,0,0,0],"id":23,"left_children":[1,3,5,-1,-1,-1,-1],"loss_changes":[1.2275611E1,1.4564219E0,2.2963033E0,0E0,0E0,0E0,0E0],"parents":[2147483647,0,0,1,1,2,2],"right_children":[2,4,6,-1,-1,-1,-1],"split_conditions":[-2.1E-3,-1E-2,3.84E-2,-3.975177E-2,-1.5643977E-3,2.377266E-3,4.4148725E-2],"split_indices":[10,30,10,0,0,0,0],"split_type":[0,0,0,0,0,0,0],"sum_hessian":[3.124614E1,1.5818155E1,1.5427984E1,1.0726873E1,5.091282E0,7.2173915E0,8.210593E0],"tree_param":{"num_deleted":"0","num_feature":"36","num_nodes":"7","size_leaf_vector":"1"}},{"base_weights":[-0E0,-3.9742458E-1,4.5097496E-2,-6.051997E-1,3.4018126E-3,-3.866907E-2,-5.5769417E-3],"categories":[],"categories_nodes":[],"categories_segments":[],"categories_sizes":[],"default_left":[0,0,0,0,0,0,0],"id":24,"left_children":[1,3,-1,5,-1,-1,-1],"loss_changes":[1.2827439E1,2.7214615E0,0E0,8.704486E-1,0E0,0E0,0E0],"parents":[2147483647,0,0,1,1,3,3],"right_children":[2,4,-1,6,-1,-1,-1],"split_conditions":[3.84E-2,4E-3,4.5097496E-2,1.01E0,3.4018126E-3,-3.866907E-2,-5.5769417E-3],"split_indices":[10,30,0,33,0,0,0],"split_type":[0,0,0,0,0,0,0],"sum_hessian":[3.1520393E1,2.2511417E1,9.008976E0,1.5891464E1,6.6199527E0,1.025252E1,5.6389456E0],"tree_param":{"num_deleted":"0","num_feature":"36","num_nodes":"7","size_leaf_vector":"1"}},{"base_weights":[-3.047166E-2,-5.104952E-1,3.9421808E-2,-3.7505563E-2,-1.2369774E-3],"categories":[],"categories_nodes":[],"categories_segments":[],"categories_sizes":[],"default_left":[0,0,0,0,0],"id":25,"left_children":[1,3,-1,-1,-1],"loss_changes":[1.3327311E1,2.1251063E0,0E0,0E0,0E0],"parents":[2147483647,0,0,1,1],"right_children":[2,4,-1,-1,-1],"split_conditions":[1.68E-1,-1.6E-1,3.9421808E-2,-3.7505563E-2,-1.2369774E-3],"split_indices":[34,34,0,0,0],"split_type":[0,0,0,0,0],"sum_hessian":[3.020925E1,1.9905146E1,1.0304105E1,1.1911583E1,7.993562E0],"tree_param":{"num_deleted":"0","num_feature":"36","num_nodes":"5","size_leaf_vector":"1"}},{"base_weights":[-7.6505356E-2,-5.5433923E-1,3.5184007E-2,-4.388427E-2,-1.6634852E-1,-2.2959E-2,4.8232786E-3],"categories":[],"categories_nodes":[],"categories_segments":[],"categories_sizes":[],"default_left":[0,0,0,0,0,0,0],"id":26,"left_children":[1,3,-1,-1,5,-1,-1],"loss_changes":[1.2324833E1,1.8011613E0,0E0,0E0,1.2431998E0,0E0,0E0],"parents":[2147483647,0,0,1,1,4,4],"right_children":[2,4,-1,-1,6,-1,-1],"split_conditions":[1.68E-1,8.7E0,3.5184007E-2,-4.388427E-2,3.72E0,-2.2959E-2,4.8232786E-3],"split_indices":[34,24,0,0,19,0,0],"split_type":[0,0,0,0,0,0,0],"sum_hessian":[2.9167858E1,1.8845522E1,1.0322336E1,8.199348E0,1.06461735E1,5.228572E0,5.4176016E0],"tree_param":{"num_deleted":"0","num_feature":"36","num_nodes":"7","size_leaf_vector":"1"}},{"base_weights":[3.7903853E-2,-5.577966E-1,6.0799706E-1,-4.1285712E-2,-0E0,4.1753527E-2,3.6748778E-3],"categories":[],"categories_nodes":[],"categories_segments":[],"categories_sizes":[],"default_left":[0,0,0,0,0,0,0],"id":27,"left_children":[1,3,5,-1,-1,-1,-1],"loss_changes":[1.1560245E1,2.3656778E0,1.5738354E0,0E0,0E0,0E0,0E0],"parents":[2147483647,0,0,1,1,2,2],"right_children":[2,4,6,-1,-1,-1,-1],"split_conditions":[4.232E0,-1.6E-1,8.9E0,-4.1285712E-2,-0E0,4.1753527E-2,3.6748778E-3],"split_indices":[5,34,23,0,0,0,0],"split_type":[0,0,0,0,0,0,0],"sum_hessian":[2.9969124E1,1.4247622E1,1.5721502E1,8.884234E0,5.363387E0,9.58804E0,6.1334624E0],"tree_param":{"num_deleted":"0","num_feature":"36","num_nodes":"7","size_leaf_vector":"1"}},{"base_weights":[-6.747669E-2,-5.039528E-1,3.690529E-2,-3.7073955E-2,-7.361206E-4],"categories":[],"categories_nodes":[],"categories_segments":[],"categories_sizes":[],"default_left":[0,0,0,0,0],"id":28,"left_children":[1,3,-1,-1,-1],"loss_changes":[1.181332E1,2.1827693E0,0E0,0E0,0E0],"parents":[2147483647,0,0,1,1],"right_children":[2,4,-1,-1,-1],"split_conditions":[1.68E-1,-1.6E-1,3.690529E-2,-3.7073955E-2,-7.361206E-4],"split_indices":[34,34,0,0,0],"split_type":[0,0,0,0,0],"sum_hessian":[2.9814274E1,2.0225388E1,9.588887E0,1.2232948E1,7.9924397E0],"tree_param":{"num_deleted":"0","num_feature":"36","num_nodes":"5","size_leaf_vector":"1"}},{"base_weights":[-9.0519376E-2,-4.993734E-1,3.3186655E-2,-3.6508318E-2,-2.7001284E-3],"categories":[],"categories_nodes":[],"categories_segments":[],"categories_sizes":[],"default_left":[0,0,0,0,0],"id":29,"left_children":[1,3,-1,-1,-1],"loss_changes":[1.072031E1,1.8822317E0,0E0,0E0,0E0],"parents":[2147483647,0,0,1,1],"right_children":[2,4,-1,-1,-1],"split_conditions":[1.68E-1,-1.6E-1,3.3186655E-2,-3.6508318E-2,-2.7001284E-3],"split_indices":[34,34,0,0,0],"split_type":[0,0,0,0,0],"sum_hessian":[3.0880262E1,2.089342E1,9.986842E0,1.2180081E1,8.713339E0],"tree_param":{"num_deleted":"0","num_feature":"36","num_nodes":"5","size_leaf_vector":"1"}},{"base_weights":[-0E0,-4.292559E-1,3.9813463E-2,-3.347029E-2,-0E0],"categories":[],"categories_nodes":[],"categories_segments":[],"categories_sizes":[],"default_left":[0,0,0,0,0],"id":30,"left_children":[1,3,-1,-1,-1],"loss_changes":[1.0898752E1,2.0275288E0,0E0,0E0,0E0],"parents":[2147483647,0,0,1,1],"right_children":[2,4,-1,-1,-1],"split_conditions":[2.91E-2,-1.6E-1,3.9813463E-2,-3.347029E-2,-0E0],"split_indices":[10,34,0,0,0],"split_type":[0,0,0,0,0],"sum_hessian":[2.7731445E1,1.849962E1,9.231826E0,1.0954136E1,7.5454845E0],"tree_param":{"num_deleted":"0","num_feature":"36","num_nodes":"5","size_leaf_vector":"1"}},{"base_weights":[3.448116E-2,-3.8264954E-1,5.547968E-1,-3.9491314E-2,-4.0310543E-4,9.872859E-3,4.062515E-2],"categories":[],"categories_nodes":[],"categories_segments":[],"categories_sizes":[],"default_left":[0,0,0,0,0,0,0],"id":31,"left_children":[1,3,5,-1,-1,-1,-1],"loss_changes":[7.207595E0,2.2996254E0,5.6279993E-1,0E0,0E0,0E0,0E0],"parents":[2147483647,0,0,1,1,2,2],"right_children":[2,4,6,-1,-1,-1,-1],"split_conditions":[3E-3,8.6E0,1.5E-1,-3.9491314E-2,-4.0310543E-4,9.872859E-3,4.062515E-2],"split_indices":[30,24,27,0,0,0,0],"split_type":[0,0,0,0,0,0,0],"sum_hessian":[2.8855818E1,1.5776333E1,1.3079485E1,5.8574424E0,9.918891E0,7.7733893E0,5.3060956E0],"tree_param":{"num_deleted":"0","num_feature":"36","num_nodes":"7","size_leaf_vector":"1"}},{"base_weights":[-7.9861246E-2,-4.765E-1,3.6567457E-2,-4.1636255E-2,-1.1407835E-1,1.7823614E-2,-3.042446E-2],"categories":[],"categories_nodes":[],"categories_segments":[],"categories_sizes":[],"default_left":[0,0,0,0,0,0,0],"id":32,"left_children":[1,3,-1,-1,5,-1,-1],"loss_changes":[1.0141588E1,2.1258922E0,0E0,0E0,3.752324E0,0E0,0E0],"parents":[2147483647,0,0,1,1,4,4],"right_children":[2,4,-1,-1,6,-1,-1],"split_conditions":[3.16E-1,8.7E0,3.6567457E-2,-4.1636255E-2,4.8E0,1.7823614E-2,-3.042446E-2],"split_indices":[6,24,0,0,0,0,0],"split_type":[0,0,0,0,0,0,0],"sum_hessian":[2.7749231E1,1.9605001E1,8.144229E0,7.8824134E0,1.1722589E1,5.773963E0,5.948625E0],"tree_param":{"num_deleted":"0","num_feature":"36","num_nodes":"7","size_leaf_vector":"1"}},{"base_weights":[-7.7452353E-4,-3.5806003E-1,3.8925912E-2,-3.782689E-2,4.751265E-3],"categories":[],"categories_nodes":[],"categories_segments":[],"categories_sizes":[],"default_left":[0,0,0,0,0],"id":33,"left_children":[1,3,-1,-1,-1],"loss_changes":[8.459694E0,4.4080715E0,0E0,0E0,0E0],"parents":[2147483647,0,0,1,1],"right_children":[2,4,-1,-1,-1],"split_conditions":[3.84E-2,1.01E0,3.8925912E-2,-3.782689E-2,4.751265E-3],"split_indices":[10,33,0,0,0],"split_type":[0,0,0,0,0],"sum_hessian":[2.7136261E1,1.9787073E1,7.349188E0,1.0402433E1,9.38464E0],"tree_param":{"num_deleted":"0","num_feature":"36","num_nodes":"5","size_leaf_vector":"1"}},{"base_weights":[-3.4006715E-2,-3.162499E-1,3.5828605E-2,-3.464336E-2,-0E0,2.1926478E-2,-2.1691246E-2],"categories":[],"categories_nodes":[],"categories_segments":[],"categories_sizes":[],"default_left":[0,0,0,0,0,0,0],"id":34,"left_children":[1,3,-1,-1,5,-1,-1],"loss_changes":[6.53541E0,2.6053474E0,0E0,0E0,3.2549968E0,0E0,0E0],"parents":[2147483647,0,0,1,1,4,4],"right_children":[2,4,-1,-1,6,-1,-1],"split_conditions":[3.84E-2,8.7E0,3.5828605E-2,-3.464336E-2,5.939E-1,2.1926478E-2,-2.1691246E-2],"split_indices":[10,24,0,0,8,0,0],"split_type":[0,0,0,0,0,0,0],"sum_hessian":[2.7655252E1,2.142296E1,6.2322927E0,8.30688E0,1.311608E1,6.206723E0,6.9093566E0],"tree_param":{"num_deleted":"0","num_feature":"36","num_nodes":"7","size_leaf_vector":"1"}},{"base_weights":[5.3844895E-2,-2.520246E-1,3.626837E-2,4.5335367E-2,-3.5709273E-2,-4.0074894E-3,1.0745068E-2],"categories":[],"categories_nodes":[],"categories_segments":[],"categories_sizes":[],"default_left":[0,0,0,0,0,0,0],"id":35,"left_children":[1,3,-1,5,-1,-1,-1],"loss_changes":[6.400305E0,3.1981835E0,0E0,3.9153403E-1,0E0,0E0,0E0],"parents":[2147483647,0,0,1,1,3,3],"right_children":[2,4,-1,6,-1,-1,-1],"split_conditions":[2.91E-2,5.349E-1,3.626837E-2,2.92E-1,-3.5709273E-2,-4.0074894E-3,1.0745068E-2],"split_indices":[10,35,0,31,0,0,0],"split_type":[0,0,0,0,0,0,0],"sum_hessian":[2.622815E1,1.836703E1,7.8611197E0,1.1615446E1,6.751584E0,5.5868855E0,6.02856E0],"tree_param":{"num_deleted":"0","num_feature":"36","num_nodes":"7","size_leaf_vector":"1"}},{"base_weights":[6.076108E-2,-2.8512695E-1,3.6841314E-2,-2.7625505E-2,1.0562855E-2],"categories":[],"categories_nodes":[],"categories_segments":[],"categories_sizes":[],"default_left":[0,0,0,0,0],"id":36,"left_children":[1,3,-1,-1,-1],"loss_changes":[7.2258153E0,3.0010915E0,0E0,0E0,0E0],"parents":[2147483647,0,0,1,1],"right_children":[2,4,-1,-1,-1],"split_conditions":[1.68E-1,1.02E0,3.6841314E-2,-2.7625505E-2,1.0562855E-2],"split_indices":[34,33,0,0,0],"split_type":[0,0,0,0,0],"sum_hessian":[2.6137646E1,1.7566978E1,8.570668E0,1.1924727E1,5.642251E0],"tree_param":{"num_deleted":"0","num_feature":"36","num_nodes":"5","size_leaf_vector":"1"}},{"base_weights":[-5.069761E-2,-3.3606082E-1,3.404733E-2,-0E0,-3.4312185E-2,-2.2042884E-2,2.286E-2],"categories":[],"categories_nodes":[],"categories_segments":[],"categories_sizes":[],"default_left":[0,0,0,0,0,0,0],"id":37,"left_children":[1,3,-1,5,-1,-1,-1],"loss_changes":[6.0262628E0,2.3605359E0,0E0,3.1031113E0,0E0,0E0,0E0],"parents":[2147483647,0,0,1,1,3,3],"right_children":[2,4,-1,6,-1,-1,-1],"split_conditions":[5.401E-1,3.75E0,3.404733E-2,3.72E0,-3.4312185E-2,-2.2042884E-2,2.286E-2],"split_indices":[15,26,0,19,0,0,0],"split_type":[0,0,0,0,0,0,0],"sum_hessian":[2.5497404E1,1.9612635E1,5.88477E0,1.1417073E1,8.195561E0,6.1455865E0,5.271487E0],"tree_param":{"num_deleted":"0","num_feature":"36","num_nodes":"7","size_leaf_vector":"1"}},{"base_weights":[8.130566E-2,-4.688203E-1,5.0499576E-1,-3.98454E-2,-0E0,6.8384255E-3,4.083948E-2],"categories":[],"categories_nodes":[],"categories_segments":[],"categories_sizes":[],"default_left":[0,0,0,0,0,0,0],"id":38,"left_children":[1,3,5,-1,-1,-1,-1],"loss_changes":[6.9971914E0,1.8107679E0,1.279573E0,0E0,0E0,0E0,0E0],"parents":[2147483647,0,0,1,1,2,2],"right_children":[2,4,6,-1,-1,-1,-1],"split_conditions":[-1.68E-1,8.7E0,3.84E-2,-3.98454E-2,-0E0,6.8384255E-3,4.083948E-2],"split_indices":[34,24,10,0,0,0,0],"split_type":[0,0,0,0,0,0,0],"sum_hessian":[2.5911095E1,1.0667326E1,1.5243769E1,5.2354326E0,5.431893E0,9.043893E0,6.1998754E0],"tree_param":{"num_deleted":"0","num_feature":"36","num_nodes":"7","size_leaf_vector":"1"}},{"base_weights":[-2.125255E-1,-5.025695E-1,2.6864696E-2,-4.6004366E-2,-1.2745127E-1,9.74622E-3,-2.6390433E-2],"categories":[],"categories_nodes":[],"categories_segments":[],"categories_sizes":[],"default_left":[0,0,0,0,0,0,0],"id":39,"left_children":[1,3,-1,-1,5,-1,-1],"loss_changes":[6.044074E0,2.3460069E0,0E0,0E0,2.100773E0,0E0,0E0],"parents":[2147483647,0,0,1,1,4,4],"right_children":[2,4,-1,-1,6,-1,-1],"split_conditions":[3.16E-1,8.6E0,2.6864696E-2,-4.6004366E-2,4.8E0,9.74622E-3,-2.6390433E-2],"split_indices":[6,24,0,0,0,0,0],"split_type":[0,0,0,0,0,0,0],"sum_hessian":[2.3387926E1,1.7820824E1,5.5671034E0,6.42789E0,1.1392933E1,6.1877766E0,5.2051563E0],"tree_param":{"num_deleted":"0","num_feature":"36","num_nodes":"7","size_leaf_vector":"1"}},{"base_weights":[-0E0,-3.142937E-1,2.720109E-2,-4.6005872E-1,-0E0,-0E0,-3.5613284E-2],"categories":[],"categories_nodes":[],"categories_segments":[],"categories_sizes":[],"default_left":[0,0,0,0,0,0,0],"id":40,"left_children":[1,3,-1,5,-1,-1,-1],"loss_changes":[4.960584E0,9.837562E-1,0E0,1.4176877E0,0E0,0E0,0E0],"parents":[2147483647,0,0,1,1,3,3],"right_children":[2,4,-1,6,-1,-1,-1],"split_conditions":[1.68E-1,8.705E0,2.720109E-2,4.116E0,-0E0,-0E0,-3.5613284E-2],"split_indices":[34,7,0,4,0,0,0],"split_type":[0,0,0,0,0,0,0],"sum_hessian":[2.5269434E1,1.6774746E1,8.494688E0,1.1410261E1,5.3644843E0,5.0210724E0,6.389189E0],"tree_param":{"num_deleted":"0","num_feature":"36","num_nodes":"7","size_leaf_vector":"1"}},{"base_weights":[3.5311718E-2,-2.0519987E-2,3.6130857E-1,-0E0,2.8885081E-2],"categories":[],"categories_nodes":[],"categories_segments":[],"categories_sizes":[],"default_left":[0,0,0,0,0],"id":41,"left_children":[1,-1,3,-1,-1],"loss_changes":[4.282258E0,0E0,1.1357317E0,0E0,0E0],"parents":[2147483647,0,0,2,2],"right_children":[2,-1,4,-1,-1],"split_conditions":[-1.6E-1,-2.0519987E-2,5.238E-1,-0E0,2.8885081E-2],"split_indices":[34,0,35,0,0],"split_type":[0,0,0,0,0],"sum_hessian":[2.559963E1,9.947533E0,1.5652098E1,7.344332E0,8.307766E0],"tree_param":{"num_deleted":"0","num_feature":"36","num_nodes":"5","size_leaf_vector":"1"}},{"base_weights":[-0E0,-5.190232E-1,5.283493E-1,-4.131428E-3,-3.55747E-2,3.6925856E-2,1.3910331E-3],"categories":[],"categories_nodes":[],"categories_segments":[],"categories_sizes":[],"default_left":[0,0,0,0,0,0,0],"id":42,"left_children":[1,3,5,-1,-1,-1,-1],"loss_changes":[7.805209E0,6.771219E-1,1.076664E0,0E0,0E0,0E0,0E0],"parents":[2147483647,0,0,1,1,2,2],"right_children":[2,4,6,-1,-1,-1,-1],"split_conditions":[-2E-3,5.238E-1,3.8E0,-4.131428E-3,-3.55747E-2,3.6925856E-2,1.3910331E-3],"split_indices":[30,35,26,0,0,0,0],"split_type":[0,0,0,0,0,0,0],"sum_hessian":[2.4456816E1,1.2188792E1,1.2268024E1,5.400497E0,6.788295E0,7.266844E0,5.00118E0],"tree_param":{"num_deleted":"0","num_feature":"36","num_nodes":"7","size_leaf_vector":"1"}},{"base_weights":[-4.514981E-2,-3.6633682E-1,3.7999686E-2,-3.4828197E-2,-3.6918394E-2,-2.8871013E-2,2.536496E-2],"categories":[],"categories_nodes":[],"categories_segments":[],"categories_sizes":[],"default_left":[0,0,0,0,0,0,0],"id":43,"left_children":[1,3,-1,5,-1,-1,-1],"loss_changes":[6.8244905E0,1.9870186E0,0E0,4.5059175E0,0E0,0E0,0E0],"parents":[2147483647,0,0,1,1,3,3],"right_children":[2,4,-1,6,-1,-1,-1],"split_conditions":[5.401E-1,3.75E0,3.7999686E-2,3.72E0,-3.6918394E-2,-2.8871013E-2,2.536496E-2],"split_indices":[15,26,0,19,0,0,0],"split_type":[0,0,0,0,0,0,0],"sum_hessian":[2.2997875E1,1.7662848E1,5.3350286E0,1.1207394E1,6.455454E0,5.9971724E0,5.210221E0],"tree_param":{"num_deleted":"0","num_feature":"36","num_nodes":"7","size_leaf_vector":"1"}},{"base_weights":[1.8428119E-1,-1.6644698E-2,5.002564E-1,4.725316E-2,-7.952552E-3],"categories":[],"categories_nodes":[],"categories_segments":[],"categories_sizes":[],"default_left":[0,0,0,0,0],"id":44,"left_children":[1,-1,3,-1,-1],"loss_changes":[4.548362E0,0E0,5.7065816E0,0E0,0E0],"parents":[2147483647,0,0,2,2],"right_children":[2,-1,4,-1,-1],"split_conditions":[8.7E0,-1.6644698E-2,5.939E-1,4.725316E-2,-7.952552E-3],"split_indices":[24,0,8,0,0],"split_type":[0,0,0,0,0],"sum_hessian":[2.3283043E1,8.189431E0,1.5093613E1,8.948186E0,6.1454268E0],"tree_param":{"num_deleted":"0","num_feature":"36","num_nodes":"5","size_leaf_vector":"1"}},{"base_weights":[-5.712055E-3,-2.9059676E-2,2.9536137E-1,-8.5640064E-4,3.2039106E-2],"categories":[],"categories_nodes":[],"categories_segments":[],"categories_sizes":[],"default_left":[0,0,0,0,0],"id":45,"left_children":[1,-1,3,-1,-1],"loss_changes":[4.6844664E0,0E0,2.1324544E0,0E0,0E0],"parents":[2147483647,0,0,2,2],"right_children":[2,-1,4,-1,-1],"split_conditions":[-2.16E-1,-2.9059676E-2,3.75E0,-8.5640064E-4,3.2039106E-2],"split_indices":[34,0,25,0,0],"split_type":[0,0,0,0,0],"sum_hessian":[2.2230482E1,7.5668597E0,1.4663623E1,7.9368052E0,6.726817E0],"tree_param":{"num_deleted":"0","num_feature":"36","num_nodes":"5","size_leaf_vector":"1"}},{"base_weights":[-0E0,-2.0664033E-2,3.8563752E-1,-0E0,2.9497415E-2],"categories":[],"categories_nodes":[],"categories_segments":[],"categories_sizes":[],"default_left":[0,0,0,0,0],"id":46,"left_children":[1,-1,3,-1,-1],"loss_changes":[4.466016E0,0E0,1.0530674E0,0E0,0E0],"parents":[2147483647,0,0,2,2],"right_children":[2,-1,4,-1,-1],"split_conditions":[-2E-3,-2.0664033E-2,5.525E-1,-0E0,2.9497415E-2],"split_indices":[30,0,9,0,0],"split_type":[0,0,0,0,0],"sum_hessian":[2.3981363E1,1.1798357E1,1.2183006E1,5.0969214E0,7.0860853E0],"tree_param":{"num_deleted":"0","num_feature":"36","num_nodes":"5","size_leaf_vector":"1"}},{"base_weights":[2.0513928E-2,-1.8367587E-1,3.1874422E-2,8.075582E-2,-3.356099E-2,-7.0165764E-3,1.7061517E-2],"categories":[],"categories_nodes":[],"categories_segments":[],"categories_sizes":[],"default_left":[0,0,0,0,0,0,0],"id":47,"left_children":[1,3,-1,5,-1,-1,-1],"loss_changes":[3.6568007E0,2.9824579E0,0E0,1.0075836E0,0E0,0E0,0E0],"parents":[2147483647,0,0,1,1,3,3],"right_children":[2,4,-1,6,-1,-1,-1],"split_conditions":[3.16E-1,5.349E-1,3.1874422E-2,3.82E0,-3.356099E-2,-7.0165764E-3,1.7061517E-2],"split_indices":[6,35,0,19,0,0,0],"split_type":[0,0,0,0,0,0,0],"sum_hessian":[2.3366842E1,1.8002905E1,5.363937E0,1.20892E1,5.913705E0,5.9996743E0,6.089525E0],"tree_param":{"num_deleted":"0","num_feature":"36","num_nodes":"7","size_leaf_vector":"1"}},{"base_weights":[-0E0,-1.893907E-1,2.9784141E-2,5.2321446E-3,-2.9413277E-2,1.8528871E-2,-1.3816674E-2],"categories":[],"categories_nodes":[],"categories_segments":[],"categories_sizes":[],"default_left":[0,0,0,0,0,0,0],"id":48,"left_children":[1,3,-1,5,-1,-1,-1],"loss_changes":[3.2317042E0,1.8487564E0,0E0,1.7505441E0,0E0,0E0,0E0],"parents":[2147483647,0,0,1,1,3,3],"right_children":[2,4,-1,6,-1,-1,-1],"split_conditions":[3.84E-2,5.349E-1,2.9784141E-2,8.9E0,-2.9413277E-2,1.8528871E-2,-1.3816674E-2],"split_indices":[10,35,0,23,0,0,0],"split_type":[0,0,0,0,0,0,0],"sum_hessian":[2.306825E1,1.7980427E1,5.087825E0,1.2568247E1,5.41218E0,5.967997E0,6.6002493E0],"tree_param":{"num_deleted":"0","num_feature":"36","num_nodes":"7","size_leaf_vector":"1"}},{"base_weights":[9.8359674E-2,-2.7453694E-1,3.665699E-2,-0E0,-2.6339909E-2],"categories":[],"categories_nodes":[],"categories_segments":[],"categories_sizes":[],"default_left":[0,0,0,0,0],"id":49,"left_children":[1,3,-1,-1,-1],"loss_changes":[6.4885592E0,1.312611E0,0E0,0E0,0E0],"parents":[2147483647,0,0,1,1],"right_children":[2,4,-1,-1,-1],"split_conditions":[1.34E-1,5.238E-1,3.665699E-2,-0E0,-2.6339909E-2],"split_indices":[6,35,0,0,0],"split_type":[0,0,0,0,0],"sum_hessian":[2.2742407E1,1.4545254E1,8.197153E0,7.3218837E0,7.22337E0],"tree_param":{"num_deleted":"0","num_feature":"36","num_nodes":"5","size_leaf_vector":"1"}},{"base_weights":[3.05964E-3,-2.190053E-2,2.5853723E-1,3.0694842E-2,-1.3634172E-2],"categories":[],"categories_nodes":[],"categories_segments":[],"categories_sizes":[],"default_left":[0,0,0,0,0],"id":50,"left_children":[1,-1,3,-1,-1],"loss_changes":[2.9099474E0,0E0,3.820177E0,0E0,0E0],"parents":[2147483647,0,0,2,2],"right_children":[2,-1,4,-1,-1],"split_conditions":[8.6E0,-2.190053E-2,5.939E-1,3.0694842E-2,-1.3634172E-2],"split_indices":[24,0,8,0,0],"split_type":[0,0,0,0,0],"sum_hessian":[2.2610512E1,7.051078E0,1.5559434E1,9.700352E0,5.8590817E0],"tree_param":{"num_deleted":"0","num_feature":"36","num_nodes":"5","size_leaf_vector":"1"}},{"base_weights":[-0E0,-2.5066054E-1,2.5009235E-2,-0E0,-2.4517523E-2],"categories":[],"categories_nodes":[],"categories_segments":[],"categories_sizes":[],"default_left":[0,0,0,0,0],"id":51,"left_children":[1,3,-1,-1,-1],"loss_changes":[3.3554237E0,1.1489747E0,0E0,0E0,0E0],"parents":[2147483647,0,0,1,1],"right_children":[2,4,-1,-1,-1],"split_conditions":[1.68E-1,5.238E-1,2.5009235E-2,-0E0,-2.4517523E-2],"split_indices":[34,35,0,0,0],"split_type":[0,0,0,0,0],"sum_hessian":[2.3337244E1,1.6595476E1,6.741768E0,8.957699E0,7.6377773E0],"tree_param":{"num_deleted":"0","num_feature":"36","num_nodes":"5","size_leaf_vector":"1"}},{"base_weights":[-3.6950897E-2,-2.6508579E-2,1.8643076E-2],"categories":[],"categories_nodes":[],"categories_segments":[],"categories_sizes":[],"default_left":[0,0,0],"id":52,"left_children":[1,-1,-1],"loss_changes":[5.2730002E0,0E0,0E0],"parents":[2147483647,0,0],"right_children":[2,-1,-1],"split_conditions":[4.232E0,-2.6508579E-2,1.8643076E-2],"split_indices":[5,0,0],"split_type":[0,0,0],"sum_hessian":[2.1742306E1,1.0154166E1,1.158814E1],"tree_param":{"num_deleted":"0","num_feature":"36","num_nodes":"3","size_leaf_vector":"1"}},{"base_weights":[-0E0,-3.6324185E-1,1.94165E-2,-0E0,-3.227018E-2],"categories":[],"categories_nodes":[],"categories_segments":[],"categories_sizes":[],"default_left":[0,0,0,0,0],"id":53,"left_children":[1,3,-1,-1,-1],"loss_changes":[3.5779617E0,1.5195171E0,0E0,0E0,0E0],"parents":[2147483647,0,0,1,1],"right_children":[2,4,-1,-1,-1],"split_conditions":[3E-3,5.238E-1,1.94165E-2,-0E0,-3.227018E-2],"split_indices":[30,35,0,0,0],"split_type":[0,0,0,0,0],"sum_hessian":[2.1438023E1,1.1688111E1,9.74991E0,5.7043786E0,5.9837327E0],"tree_param":{"num_deleted":"0","num_feature":"36","num_nodes":"5","size_leaf_vector":"1"}},{"base_weights":[-0E0,-3.31296E-1,3.6978924E-1,-0E0,-2.9426882E-2,2.8425867E-2,-0E0],"categories":[],"categories_nodes":[],"categories_segments":[],"categories_sizes":[],"default_left":[0,0,0,0,0,0,0],"id":54,"left_children":[1,3,5,-1,-1,-1,-1],"loss_changes":[3.185255E0,1.042713E0,6.553824E-1,0E0,0E0,0E0,0E0],"parents":[2147483647,0,0,1,1,2,2],"right_children":[2,4,6,-1,-1,-1,-1],"split_conditions":[-2E-3,5.238E-1,2.94E-1,-0E0,-2.9426882E-2,2.8425867E-2,-0E0],"split_indices":[30,35,32,0,0,0,0],"split_type":[0,0,0,0,0,0,0],"sum_hessian":[2.194965E1,1.1458551E1,1.0491098E1,6.183568E0,5.2749834E0,5.312436E0,5.178663E0],"tree_param":{"num_deleted":"0","num_feature":"36","num_nodes":"7","size_leaf_vector":"1"}},{"base_weights":[2.3172038E-2,-2.9088414E-1,3.1811092E-2,-3.222965E-2,4.726218E-3],"categories":[],"categories_nodes":[],"categories_segments":[],"categories_sizes":[],"default_left":[0,0,0,0,0],"id":55,"left_children":[1,3,-1,-1,-1],"loss_changes":[5.011671E0,2.6027946E0,0E0,0E0,0E0],"parents":[2147483647,0,0,1,1],"right_children":[2,4,-1,-1,-1],"split_conditions":[4.425E0,8.9E0,3.1811092E-2,-3.222965E-2,4.726218E-3],"split_indices":[5,24,0,0,0],"split_type":[0,0,0,0,0],"sum_hessian":[2.1211037E1,1.41814995E1,7.0295367E0,7.3700085E0,6.8114915E0],"tree_param":{"num_deleted":"0","num_feature":"36","num_nodes":"5","size_leaf_vector":"1"}},{"base_weights":[-0E0,-2.8257146E-1,1.9960426E-2,-3.5664417E-2,9.770713E-3],"categories":[],"categories_nodes":[],"categories_segments":[],"categories_sizes":[],"default_left":[0,0,0,0,0],"id":56,"left_children":[1,3,-1,-1,-1],"loss_changes":[2.4949164E0,3.3656576E0,0E0,0E0,0E0],"parents":[2147483647,0,0,1,1],"right_children":[2,4,-1,-1,-1],"split_conditions":[4.386E0,8.9E0,1.9960426E-2,-3.5664417E-2,9.770713E-3],"split_indices":[5,24,0,0,0],"split_type":[0,0,0,0,0],"sum_hessian":[1.8509148E1,1.1736134E1,6.773014E0,6.20566E0,5.530473E0],"tree_param":{"num_deleted":"0","num_feature":"36","num_nodes":"5","size_leaf_vector":"1"}},{"base_weights":[-5.314437E-2,1.849522E-1,-2.2208977E-2,-2.0608932E-2,3.2805473E-2],"categories":[],"categories_nodes":[],"categories_segments":[],"categories_sizes":[],"default_left":[0,0,0,0,0],"id":57,"left_children":[1,3,-1,-1,-1],"loss_changes":[2.5402796E0,5.0556107E0,0E0,0E0,0E0],"parents":[2147483647,0,0,1,1],"right_children":[2,4,-1,-1,-1],"split_conditions":[5.865E-1,8.6E0,-2.2208977E-2,-2.0608932E-2,3.2805473E-2],"split_indices":[8,24,0,0,0],"split_type":[0,0,0,0,0],"sum_hessian":[2.2127415E1,1.3613625E1,8.51379E0,5.6465244E0,7.9671E0],"tree_param":{"num_deleted":"0","num_feature":"36","num_nodes":"5","size_leaf_vector":"1"}},{"base_weights":[-1.1141815E-3,2.0608684E-1,-2.0495309E-2,-9.721904E-3,2.6266932E-2],"categories":[],"categories_nodes":[],"categories_segments":[],"categories_sizes":[],"default_left":[0,0,0,0,0],"id":58,"left_children":[1,3,-1,-1,-1],"loss_changes":[2.1298869E0,2.2985606E0,0E0,0E0,0E0],"parents":[2147483647,0,0,1,1],"right_children":[2,4,-1,-1,-1],"split_conditions":[4.8E0,7.28E-1,-2.0495309E-2,-9.721904E-3,2.6266932E-2],"split_indices":[0,29,0,0,0],"split_type":[0,0,0,0,0],"sum_hessian":[1.9947796E1,1.3084416E1,6.8633795E0,5.4556513E0,7.6287656E0],"tree_param":{"num_deleted":"0","num_feature":"36","num_nodes":"5","size_leaf_vector":"1"}},{"base_weights":[-5.431538E-2,1.0576042E-1,-2.277057E-2,2.343174E-2,-1.3131379E-2],"categories":[],"categories_nodes":[],"categories_segments":[],"categories_sizes":[],"default_left":[0,0,0,0,0],"id":59,"left_children":[1,3,-1,-1,-1],"loss_changes":[1.8156497E0,2.7454264E0,0E0,0E0,0E0],"parents":[2147483647,0,0,1,1],"right_children":[2,4,-1,-1,-1],"split_conditions":[5.939E-1,3.75E0,-2.277057E-2,2.343174E-2,-1.3131379E-2],"split_indices":[8,26,0,0,0],"split_type":[0,0,0,0,0],"sum_hessian":[2.2055397E1,1.5925609E1,6.1297874E0,8.432417E0,7.4931917E0],"tree_param":{"num_deleted":"0","num_feature":"36","num_nodes":"5","size_leaf_vector":"1"}},{"base_weights":[-5.8060896E-2,-3.1752077E-1,2.5815776E-2,-2.5069078E-3,-2.5339415E-2],"categories":[],"categories_nodes":[],"categories_segments":[],"categories_sizes":[],"default_left":[0,0,0,0,0],"id":60,"left_children":[1,3,-1,-1,-1],"loss_changes":[3.805906E0,6.0054874E-1,0E0,0E0,0E0],"parents":[2147483647,0,0,1,1],"right_children":[2,4,-1,-1,-1],"split_conditions":[2.26E-1,5.238E-1,2.5815776E-2,-2.5069078E-3,-2.5339415E-2],"split_indices":[34,35,0,0,0],"split_type":[0,0,0,0,0],"sum_hessian":[2.2005089E1,1.6373617E1,5.6314726E0,8.929825E0,7.4437923E0],"tree_param":{"num_deleted":"0","num_feature":"36","num_nodes":"5","size_leaf_vector":"1"}},{"base_weights":[-2.5247408E-2,-2.7977046E-1,1.8445099E-2,-2.881802E-2,-0E0],"categories":[],"categories_nodes":[],"categories_segments":[],"categories_sizes":[],"default_left":[0,0,0,0,0],"id":61,"left_children":[1,3,-1,-1,-1],"loss_changes":[2.513688E0,1.2188255E0,0E0,0E0,0E0],"parents":[2147483647,0,0,1,1],"right_children":[2,4,-1,-1,-1],"split_conditions":[4.425E0,8.8E0,1.8445099E-2,-2.881802E-2,-0E0],"split_indices":[5,24,0,0,0],"split_type":[0,0,0,0,0],"sum_hessian":[2.1443342E1,1.4152964E1,7.290377E0,5.4750376E0,8.677926E0],"tree_param":{"num_deleted":"0","num_feature":"36","num_nodes":"5","size_leaf_vector":"1"}},{"base_weights":[3.878194E-2,-1.1427485E-1,2.2242695E-2,8.771111E-3,-2.4305262E-2],"categories":[],"categories_nodes":[],"categories_segments":[],"categories_sizes":[],"default_left":[0,0,0,0,0],"id":62,"left_children":[1,3,-1,-1,-1],"loss_changes":[1.6513566E0,2.1435158E0,0E0,0E0,0E0],"parents":[2147483647,0,0,1,1],"right_children":[2,4,-1,-1,-1],"split_conditions":[1.2E-2,5.238E-1,2.2242695E-2,8.771111E-3,-2.4305262E-2],"split_indices":[30,35,0,0,0],"split_type":[0,0,0,0,0],"sum_hessian":[2.0274334E1,1.4873913E1,5.40042E0,8.198282E0,6.6756306E0],"tree_param":{"num_deleted":"0","num_feature":"36","num_nodes":"5","size_leaf_vector":"1"}},{"base_weights":[4.3651965E-2,2.5638882E-2,-1.9307014E-1,-0E0,-2.3891544E-2],"categories":[],"categories_nodes":[],"categories_segments":[],"categories_sizes":[],"default_left":[0,0,0,0,0],"id":63,"left_children":[1,-1,3,-1,-1],"loss_changes":[2.785625E0,0E0,1.0768661E0,0E0,0E0],"parents":[2147483647,0,0,2,2],"right_children":[2,-1,4,-1,-1],"split_conditions":[4.067E0,2.5638882E-2,5.349E-1,-0E0,-2.3891544E-2],"split_indices":[4,0,35,0,0],"split_type":[0,0,0,0,0],"sum_hessian":[1.9861456E1,6.5871634E0,1.3274293E1,8.064172E0,5.210121E0],"tree_param":{"num_deleted":"0","num_feature":"36","num_nodes":"5","size_leaf_vector":"1"}},{"base_weights":[4.1777916E-2,-1.7549844E-2,3.7165093E-1,3.2990005E-2,-0E0],"categories":[],"categories_nodes":[],"categories_segments":[],"categories_sizes":[],"default_left":[0,0,0,0,0],"id":64,"left_children":[1,-1,3,-1,-1],"loss_changes":[3.119943E0,0E0,1.5052298E0,0E0,0E0],"parents":[2147483647,0,0,2,2],"right_children":[2,-1,4,-1,-1],"split_conditions":[-1.6E-1,-1.7549844E-2,8.8E0,3.2990005E-2,-0E0],"split_indices":[34,0,23,0,0],"split_type":[0,0,0,0,0],"sum_hessian":[1.998666E1,8.373113E0,1.1613546E1,5.7769628E0,5.8365836E0],"tree_param":{"num_deleted":"0","num_feature":"36","num_nodes":"5","size_leaf_vector":"1"}},{"base_weights":[-0E0,1.319246E-2,-1.4306975E-2],"categories":[],"categories_nodes":[],"categories_segments":[],"categories_sizes":[],"default_left":[0,0,0],"id":65,"left_children":[1,-1,-1],"loss_changes":[1.7722421E0,0E0,0E0],"parents":[2147483647,0,0],"right_children":[2,-1,-1],"split_conditions":[4.336E0,1.319246E-2,-1.4306975E-2],"split_indices":[4,0,0],"split_type":[0,0,0],"sum_hessian":[1.9416182E1,9.825756E0,9.5904255E0],"tree_param":{"num_deleted":"0","num_feature":"36","num_nodes":"3","size_leaf_vector":"1"}},{"base_weights":[-0E0,-2.4137074E-1,3.0976225E-2,4.3778764E-3,-2.335849E-2],"categories":[],"categories_nodes":[],"categories_segments":[],"categories_sizes":[],"default_left":[0,0,0,0,0],"id":66,"left_children":[1,3,-1,-1,-1],"loss_changes":[3.7277915E0,1.5299969E0,0E0,0E0,0E0],"parents":[2147483647,0,0,1,1],"right_children":[2,4,-1,-1,-1],"split_conditions":[2.85E-2,3.5E0,3.0976225E-2,4.3778764E-3,-2.335849E-2],"split_indices":[10,25,0,0,0],"split_type":[0,0,0,0,0],"sum_hessian":[2.0083714E1,1.4942957E1,5.140757E0,5.679527E0,9.26343E0],"tree_param":{"num_deleted":"0","num_feature":"36","num_nodes":"5","size_leaf_vector":"1"}},{"base_weights":[5.745398E-3,-2.4339989E-1,2.6289979E-2,2.5465803E-3,-2.7576253E-2],"categories":[],"categories_nodes":[],"categories_segments":[],"categories_sizes":[],"default_left":[0,0,0,0,0],"id":67,"left_children":[1,3,-1,-1,-1],"loss_changes":[3.2362292E0,1.7150457E0,0E0,0E0,0E0],"parents":[2147483647,0,0,1,1],"right_children":[2,4,-1,-1,-1],"split_conditions":[2.94E-1,5.556E-1,2.6289979E-2,2.5465803E-3,-2.7576253E-2],"split_indices":[31,11,0,0,0],"split_type":[0,0,0,0,0],"sum_hessian":[1.9911642E1,1.3531525E1,6.3801184E0,6.94455E0,6.586974E0],"tree_param":{"num_deleted":"0","num_feature":"36","num_nodes":"5","size_leaf_vector":"1"}},{"base_weights":[-0E0,-1.666553E-1,1.9773923E-2,2.9221405E-3,-2.2350432E-2],"categories":[],"categories_nodes":[],"categories_segments":[],"categories_sizes":[],"default_left":[0,0,0,0,0],"id":68,"left_children":[1,3,-1,-1,-1],"loss_changes":[1.5894673E0,1.3670897E0,0E0,0E0,0E0],"parents":[2147483647,0,0,1,1],"right_children":[2,4,-1,-1,-1],"split_conditions":[1.2E-2,5.238E-1,1.9773923E-2,2.9221405E-3,-2.2350432E-2],"split_indices":[30,35,0,0,0],"split_type":[0,0,0,0,0],"sum_hessian":[2.0765917E1,1.5756476E1,5.0094414E0,8.62833E0,7.128146E0],"tree_param":{"num_deleted":"0","num_feature":"36","num_nodes":"5","size_leaf_vector":"1"}},{"base_weights":[1.1002296E-2,2.182822E-1,-1.5052931E-2,-7.275432E-3,2.5272736E-2],"categories":[],"categories_nodes":[],"categories_segments":[],"categories_sizes":[],"default_left":[0,0,0,0,0],"id":69,"left_children":[1,3,-1,-1,-1],"loss_changes":[1.4982226E0,1.9153762E0,0E0,0E0,0E0],"parents":[2147483647,0,0,1,1],"right_children":[2,4,-1,-1,-1],"split_conditions":[4.8E0,8.7E0,-1.5052931E-2,-7.275432E-3,2.5272736E-2],"split_indices":[0,24,0,0,0],"split_type":[0,0,0,0,0],"sum_hessian":[1.977015E1,1.3203368E1,6.5667796E0,5.4918184E0,7.7115498E0],"tree_param":{"num_deleted":"0","num_feature":"36","num_nodes":"5","size_leaf_vector":"1"}},{"base_weights":[-0E0,-2.4701753E-1,1.7153047E-2,-2.4986751E-2,1.6283992E-3],"categories":[],"categories_nodes":[],"categories_segments":[],"categories_sizes":[],"default_left":[0,0,0,0,0],"id":70,"left_children":[1,3,-1,-1,-1],"loss_changes":[1.9363201E0,1.269697E0,0E0,0E0,0E0],"parents":[2147483647,0,0,1,1],"right_children":[2,4,-1,-1,-1],"split_conditions":[4.425E0,8.9E0,1.7153047E-2,-2.4986751E-2,1.6283992E-3],"split_indices":[5,24,0,0,0],"split_type":[0,0,0,0,0],"sum_hessian":[1.9292181E1,1.2203472E1,7.088708E0,6.521878E0,5.681595E0],"tree_param":{"num_deleted":"0","num_feature":"36","num_nodes":"5","size_leaf_vector":"1"}},{"base_weights":[-1.1380232E-2,-2.0680262E-2,1.9500962E-1,-1.4403351E-2,2.9463295E-2],"categories":[],"categories_nodes":[],"categories_segments":[],"categories_sizes":[],"default_left":[0,0,0,0,0],"id":71,"left_children":[1,-1,3,-1,-1],"loss_changes":[2.053972E0,0E0,3.2964664E0,0E0,0E0],"parents":[2147483647,0,0,2,2],"right_children":[2,-1,4,-1,-1],"split_conditions":[3.72E0,-2.0680262E-2,7.28E-1,-1.4403351E-2,2.9463295E-2],"split_indices":[19,0,29,0,0],"split_type":[0,0,0,0,0],"sum_hessian":[1.9482342E1,6.747333E0,1.2735009E1,5.395028E0,7.3399806E0],"tree_param":{"num_deleted":"0","num_feature":"36","num_nodes":"5","size_leaf_vector":"1"}},{"base_weights":[-4.4404324E-2,-2.3661958E-1,1.3440792E-2,1.0435116E-3,-2.0792319E-2],"categories":[],"categories_nodes":[],"categories_segments":[],"categories_sizes":[],"default_left":[0,0,0,0,0],"id":72,"left_children":[1,3,-1,-1,-1],"loss_changes":[1.4734029E0,9.56697E-1,0E0,0E0,0E0],"parents":[2147483647,0,0,1,1],"right_children":[2,4,-1,-1,-1],"split_conditions":[2.94E-1,2.9E-1,1.3440792E-2,1.0435116E-3,-2.0792319E-2],"split_indices":[31,31,0,0,0],"split_type":[0,0,0,0,0],"sum_hessian":[2.0627207E1,1.4075109E1,6.5520983E0,5.3566766E0,8.718432E0],"tree_param":{"num_deleted":"0","num_feature":"36","num_nodes":"5","size_leaf_vector":"1"}},{"base_weights":[2.3370586E-2,-2.2011185E-1,3.1138008E-2,-2.3080083E-2,-0E0],"categories":[],"categories_nodes":[],"categories_segments":[],"categories_sizes":[],"default_left":[0,0,0,0,0],"id":73,"left_children":[1,3,-1,-1,-1],"loss_changes":[3.6078362E0,8.430712E-1,0E0,0E0,0E0],"parents":[2147483647,0,0,1,1],"right_children":[2,4,-1,-1,-1],"split_conditions":[1.68E-1,3.82E0,3.1138008E-2,-2.3080083E-2,-0E0],"split_indices":[34,19,0,0,0],"split_type":[0,0,0,0,0],"sum_hessian":[1.9463205E1,1.4147578E1,5.3156266E0,5.6283035E0,8.519275E0],"tree_param":{"num_deleted":"0","num_feature":"36","num_nodes":"5","size_leaf_vector":"1"}},{"base_weights":[-1.4542582E-2,2.3823722E-1,-2.686212E-2,-1.2928187E-2,3.4717586E-2],"categories":[],"categories_nodes":[],"categories_segments":[],"categories_sizes":[],"default_left":[0,0,0,0,0],"id":74,"left_children":[1,3,-1,-1,-1],"loss_changes":[3.149866E0,3.917229E0,0E0,0E0,0E0],"parents":[2147483647,0,0,1,1],"right_children":[2,4,-1,-1,-1],"split_conditions":[4.8E0,8.7E0,-2.686212E-2,-1.2928187E-2,3.4717586E-2],"split_indices":[0,24,0,0,0],"split_type":[0,0,0,0,0],"sum_hessian":[1.8770632E1,1.274093E1,6.0297027E0,5.9883842E0,6.7525454E0],"tree_param":{"num_deleted":"0","num_feature":"36","num_nodes":"5","size_leaf_vector":"1"}},{"base_weights":[-2.5453407E-2,-1.6870817E-2,1.270379E-1,1.985195E-2,-4.160515E-3],"categories":[],"categories_nodes":[],"categories_segments":[],"categories_sizes":[],"default_left":[0,0,0,0,0],"id":75,"left_children":[1,-1,3,-1,-1],"loss_changes":[1.2749844E0,0E0,1.1132499E0,0E0,0E0],"parents":[2147483647,0,0,2,2],"right_children":[2,-1,4,-1,-1],"split_conditions":[-1.6E-1,-1.6870817E-2,5.123E-1,1.985195E-2,-4.160515E-3],"split_indices":[34,0,11,0,0],"split_type":[0,0,0,0,0],"sum_hessian":[2.078807E1,7.1054363E0,1.3682635E1,6.253351E0,7.4292836E0],"tree_param":{"num_deleted":"0","num_feature":"36","num_nodes":"5","size_leaf_vector":"1"}},{"base_weights":[-6.75073E-2,-3.1253737E-1,1.5619603E-2,-3.3331394E-2,4.55543E-3],"categories":[],"categories_nodes":[],"categories_segments":[],"categories_sizes":[],"default_left":[0,0,0,0,0],"id":76,"left_children":[1,3,-1,-1,-1],"loss_changes":[2.1390429E0,2.4807172E0,0E0,0E0,0E0],"parents":[2147483647,0,0,1,1],"right_children":[2,4,-1,-1,-1],"split_conditions":[4.425E0,8.9E0,1.5619603E-2,-3.3331394E-2,4.55543E-3],"split_indices":[5,24,0,0,0],"split_type":[0,0,0,0,0],"sum_hessian":[1.888054E1,1.2493298E1,6.3872437E0,6.6209106E0,5.872387E0],"tree_param":{"num_deleted":"0","num_feature":"36","num_nodes":"5","size_leaf_vector":"1"}},{"base_weights":[-2.4610551E-2,-2.2818165E-2,2.1050449E-1,2.3518104E-2,-0E0],"categories":[],"categories_nodes":[],"categories_segments":[],"categories_sizes":[],"default_left":[0,0,0,0,0],"id":77,"left_children":[1,-1,3,-1,-1],"loss_changes":[2.5979712E0,0E0,9.176108E-1,0E0,0E0],"parents":[2147483647,0,0,2,2],"right_children":[2,-1,4,-1,-1],"split_conditions":[-1.6E-1,-2.2818165E-2,4.067E0,2.3518104E-2,-0E0],"split_indices":[34,0,4,0,0],"split_type":[0,0,0,0,0],"sum_hessian":[2.0489153E1,7.310012E0,1.3179141E1,5.1877933E0,7.9913473E0],"tree_param":{"num_deleted":"0","num_feature":"36","num_nodes":"5","size_leaf_vector":"1"}},{"base_weights":[-3.0080855E-3,-2.416966E-1,1.7916342E-2,-0E0,-2.632223E-2],"categories":[],"categories_nodes":[],"categories_segments":[],"categories_sizes":[],"default_left":[0,0,0,0,0],"id":78,"left_children":[1,3,-1,-1,-1],"loss_changes":[1.7955743E0,1.200463E0,0E0,0E0,0E0],"parents":[2147483647,0,0,1,1],"right_children":[2,4,-1,-1,-1],"split_conditions":[1.06E-1,5.238E-1,1.7916342E-2,-0E0,-2.632223E-2],"split_indices":[34,35,0,0,0],"split_type":[0,0,0,0,0],"sum_hessian":[1.7486898E1,1.1762713E1,5.7241855E0,6.530215E0,5.2324986E0],"tree_param":{"num_deleted":"0","num_feature":"36","num_nodes":"5","size_leaf_vector":"1"}},{"base_weights":[9.152011E-2,2.7449912E-1,-1.2546109E-2,-0E0,2.5966821E-2],"categories":[],"categories_nodes":[],"categories_segments":[],"categories_sizes":[],"default_left":[0,0,0,0,0],"id":79,"left_children":[1,3,-1,-1,-1],"loss_changes":[1.458438E0,1.2758032E0,0E0,0E0,0E0],"parents":[2147483647,0,0,1,1],"right_children":[2,4,-1,-1,-1],"split_conditions":[2.95E-1,3.72E0,-1.2546109E-2,-0E0,2.5966821E-2],"split_indices":[32,19,0,0,0],"split_type":[0,0,0,0,0],"sum_hessian":[1.8888908E1,1.35210495E1,5.367859E0,6.454615E0,7.066435E0],"tree_param":{"num_deleted":"0","num_feature":"36","num_nodes":"5","size_leaf_vector":"1"}},{"base_weights":[-0E0,-1.941848E-1,1.5804784E-2,3.3557168E-4,-2.4124196E-2],"categories":[],"categories_nodes":[],"categories_segments":[],"categories_sizes":[],"default_left":[0,0,0,0,0],"id":80,"left_children":[1,3,-1,-1,-1],"loss_changes":[1.378714E0,1.120889E0,0E0,0E0,0E0],"parents":[2147483647,0,0,1,1],"right_children":[2,4,-1,-1,-1],"split_conditions":[2.94E-1,5.886E-1,1.5804784E-2,3.3557168E-4,-2.4124196E-2],"split_indices":[31,8,0,0,0],"split_type":[0,0,0,0,0],"sum_hessian":[1.9221123E1,1.3133866E1,6.087255E0,7.8693666E0,5.2645E0],"tree_param":{"num_deleted":"0","num_feature":"36","num_nodes":"5","size_leaf_vector":"1"}},{"base_weights":[-0E0,2.1616565E-1,-1.7256318E-2,-8.247251E-3,2.7013252E-2],"categories":[],"categories_nodes":[],"categories_segments":[],"categories_sizes":[],"default_left":[0,0,0,0,0],"id":81,"left_children":[1,3,-1,-1,-1],"loss_changes":[1.668623E0,2.1598861E0,0E0,0E0,0E0],"parents":[2147483647,0,0,1,1],"right_children":[2,4,-1,-1,-1],"split_conditions":[4.8E0,-2E-3,-1.7256318E-2,-8.247251E-3,2.7013252E-2],"split_indices":[0,30,0,0,0],"split_type":[0,0,0,0,0],"sum_hessian":[1.8835217E1,1.2524217E1,6.3109984E0,5.4982195E0,7.0259976E0],"tree_param":{"num_deleted":"0","num_feature":"36","num_nodes":"5","size_leaf_vector":"1"}},{"base_weights":[4.8170403E-2,-1.5183059E-2,2.6716775E-1,-0E0,2.5875254E-2],"categories":[],"categories_nodes":[],"categories_segments":[],"categories_sizes":[],"default_left":[0,0,0,0,0],"id":82,"left_children":[1,-1,3,-1,-1],"loss_changes":[1.7177739E0,0E0,1.0963311E0,0E0,0E0],"parents":[2147483647,0,0,2,2],"right_children":[2,-1,4,-1,-1],"split_conditions":[8.6E0,-1.5183059E-2,3.72E0,-0E0,2.5875254E-2],"split_indices":[24,0,19,0,0],"split_type":[0,0,0,0,0],"sum_hessian":[1.8425179E1,5.8962283E0,1.2528951E1,6.562947E0,5.9660034E0],"tree_param":{"num_deleted":"0","num_feature":"36","num_nodes":"5","size_leaf_vector":"1"}},{"base_weights":[-4.072302E-2,-1.52594885E-2,1.5471087E-1,-8.7640155E-3,2.6231546E-2],"categories":[],"categories_nodes":[],"categories_segments":[],"categories_sizes":[],"default_left":[0,0,0,0,0],"id":83,"left_children":[1,-1,3,-1,-1],"loss_changes":[1.2860674E0,0E0,1.9041156E0,0E0,0E0],"parents":[2147483647,0,0,2,2],"right_children":[2,-1,4,-1,-1],"split_conditions":[-3.6E-2,-1.52594885E-2,5.238E-1,-8.7640155E-3,2.6231546E-2],"split_indices":[34,0,35,0,0],"split_type":[0,0,0,0,0],"sum_hessian":[1.9599672E1,8.938732E0,1.0660941E1,5.476373E0,5.184568E0],"tree_param":{"num_deleted":"0","num_feature":"36","num_nodes":"5","size_leaf_vector":"1"}},{"base_weights":[-0E0,1.6749448E-1,-1.9255059E-2,-9.54812E-3,2.6791457E-2],"categories":[],"categories_nodes":[],"categories_segments":[],"categories_sizes":[],"default_left":[0,0,0,0,0],"id":84,"left_children":[1,3,-1,-1,-1],"loss_changes":[1.5583346E0,2.4269595E0,0E0,0E0,0E0],"parents":[2147483647,0,0,1,1],"right_children":[2,4,-1,-1,-1],"split_conditions":[5.939E-1,8.7E0,-1.9255059E-2,-9.54812E-3,2.6791457E-2],"split_indices":[8,24,0,0,0],"split_type":[0,0,0,0,0],"sum_hessian":[1.9096424E1,1.3525618E1,5.5708065E0,6.6548634E0,6.8707542E0],"tree_param":{"num_deleted":"0","num_feature":"36","num_nodes":"5","size_leaf_vector":"1"}},{"base_weights":[-6.8382375E-2,-1.8461756E-2,9.325077E-2,-4.608977E-3,1.585135E-2],"categories":[],"categories_nodes":[],"categories_segments":[],"categories_sizes":[],"default_left":[0,0,0,0,0],"id":85,"left_children":[1,-1,3,-1,-1],"loss_changes":[1.1246729E0,0E0,7.0174074E-1,0E0,0E0],"parents":[2147483647,0,0,2,2],"right_children":[2,-1,4,-1,-1],"split_conditions":[7.28E-1,-1.8461756E-2,3.78E0,-4.608977E-3,1.585135E-2],"split_indices":[29,0,17,0,0],"split_type":[0,0,0,0,0],"sum_hessian":[1.6874352E1,6.080727E0,1.0793625E1,5.3238397E0,5.4697847E0],"tree_param":{"num_deleted":"0","num_feature":"36","num_nodes":"5","size_leaf_vector":"1"}},{"base_weights":[-0E0,-1.2137835E-1,1.6080704E-2,-1.38303405E-2,1.8897105E-3],"categories":[],"categories_nodes":[],"categories_segments":[],"categories_sizes":[],"default_left":[0,0,0,0,0],"id":86,"left_children":[1,3,-1,-1,-1],"loss_changes":[9.713785E-1,5.416272E-1,0E0,0E0,0E0],"parents":[2147483647,0,0,1,1],"right_children":[2,4,-1,-1,-1],"split_conditions":[4.4E0,5.865E-1,1.6080704E-2,-1.38303405E-2,1.8897105E-3],"split_indices":[3,9,0,0,0],"split_type":[0,0,0,0,0],"sum_hessian":[1.931986E1,1.4242145E1,5.0777154E0,8.053696E0,6.188449E0],"tree_param":{"num_deleted":"0","num_feature":"36","num_nodes":"5","size_leaf_vector":"1"}},{"base_weights":[-5.779877E-2,-2.1464253E-2,1.19399205E-1,2.2117993E-2,-1.2773785E-2],"categories":[],"categories_nodes":[],"categories_segments":[],"categories_sizes":[],"default_left":[0,0,0,0,0],"id":87,"left_children":[1,-1,3,-1,-1],"loss_changes":[1.6750237E0,0E0,2.163806E0,0E0,0E0],"parents":[2147483647,0,0,2,2],"right_children":[2,-1,4,-1,-1],"split_conditions":[7.28E-1,-2.1464253E-2,4.8E0,2.2117993E-2,-1.2773785E-2],"split_indices":[29,0,0,0,0],"split_type":[0,0,0,0,0],"sum_hessian":[1.953488E1,6.3011956E0,1.3233684E1,7.632179E0,5.6015043E0],"tree_param":{"num_deleted":"0","num_feature":"36","num_nodes":"5","size_leaf_vector":"1"}},{"base_weights":[-1.1609673E-2,-1.6111664E-2,1.2824096E-1,1.8513715E-2,-2.8001016E-3],"categories":[],"categories_nodes":[],"categories_segments":[],"categories_sizes":[],"default_left":[0,0,0,0,0],"id":88,"left_children":[1,-1,3,-1,-1],"loss_changes":[1.0494926E0,0E0,8.2861876E-1,0E0,0E0],"parents":[2147483647,0,0,2,2],"right_children":[2,-1,4,-1,-1],"split_conditions":[-1.94E-1,-1.6111664E-2,8.5E-3,1.8513715E-2,-2.8001016E-3],"split_indices":[34,0,10,0,0],"split_type":[0,0,0,0,0],"sum_hessian":[1.8023739E1,5.895711E0,1.2128028E1,5.5420427E0,6.585985E0],"tree_param":{"num_deleted":"0","num_feature":"36","num_nodes":"5","size_leaf_vector":"1"}},{"base_weights":[8.293911E-3,-1.0558091E-2,1.3952154E-2],"categories":[],"categories_nodes":[],"categories_segments":[],"categories_sizes":[],"default_left":[0,0,0],"id":89,"left_children":[1,-1,-1],"loss_changes":[1.3997927E0,0E0,0E0],"parents":[2147483647,0,0],"right_children":[2,-1,-1],"split_conditions":[-2E-3,-1.0558091E-2,1.3952154E-2],"split_indices":[30,0,0],"split_type":[0,0,0],"sum_hessian":[1.900402E1,9.719399E0,9.284621E0],"tree_param":{"num_deleted":"0","num_feature":"36","num_nodes":"3","size_leaf_vector":"1"}},{"base_weights":[-5.1855132E-2,-1.7413573E-2,1.0283053E-1,-2.0000972E-3,1.4696911E-2],"categories":[],"categories_nodes":[],"categories_segments":[],"categories_sizes":[],"default_left":[0,0,0,0,0],"id":90,"left_children":[1,-1,3,-1,-1],"loss_changes":[1.0823257E0,0E0,5.0974E-1,0E0,0E0],"parents":[2147483647,0,0,2,2],"right_children":[2,-1,4,-1,-1],"split_conditions":[-1.6E-1,-1.7413573E-2,-2.66E-2,-2.0000972E-3,1.4696911E-2],"split_indices":[34,0,14,0,0],"split_type":[0,0,0,0,0],"sum_hessian":[1.736648E1,6.20519E0,1.1161289E1,5.7951093E0,5.3661795E0],"tree_param":{"num_deleted":"0","num_feature":"36","num_nodes":"5","size_leaf_vector":"1"}},{"base_weights":[-9.448076E-2,-3.3998162E-1,1.6623976E-2,-0E0,-2.3663195E-2],"categories":[],"categories_nodes":[],"categories_segments":[],"categories_sizes":[],"default_left":[0,0,0,0,0],"id":91,"left_children":[1,3,-1,-1,-1],"loss_changes":[2.3587918E0,4.6198893E-1,0E0,0E0,0E0],"parents":[2147483647,0,0,1,1],"right_children":[2,4,-1,-1,-1],"split_conditions":[2.94E-1,2.91E-1,1.6623976E-2,-0E0,-2.3663195E-2],"split_indices":[31,32,0,0,0],"split_type":[0,0,0,0,0],"sum_hessian":[1.831087E1,1.2628196E1,5.6826725E0,5.0164557E0,7.61174E0],"tree_param":{"num_deleted":"0","num_feature":"36","num_nodes":"5","size_leaf_vector":"1"}},{"base_weights":[1.5365747E-1,-4.749098E-2,2.4160055E-2,6.478188E-3,-1.5266537E-2],"categories":[],"categories_nodes":[],"categories_segments":[],"categories_sizes":[],"default_left":[0,0,0,0,0],"id":92,"left_children":[1,3,-1,-1,-1],"loss_changes":[1.5761917E0,7.684025E-1,0E0,0E0,0E0],"parents":[2147483647,0,0,1,1],"right_children":[2,4,-1,-1,-1],"split_conditions":[4.425E0,3.7E0,2.4160055E-2,6.478188E-3,-1.5266537E-2],"split_indices":[5,26,0,0,0],"split_type":[0,0,0,0,0],"sum_hessian":[1.7799322E1,1.1173633E1,6.6256895E0,6.0648246E0,5.1088085E0],"tree_param":{"num_deleted":"0","num_feature":"36","num_nodes":"5","size_leaf_vector":"1"}},{"base_weights":[1.2972584E-1,2.9760677E-2,-1.10293254E-1,2.452391E-3,-1.5415332E-2],"categories":[],"categories_nodes":[],"categories_segments":[],"categories_sizes":[],"default_left":[0,0,0,0,0],"id":93,"left_children":[1,-1,3,-1,-1],"loss_changes":[2.3593757E0,0E0,5.607243E-1,0E0,0E0],"parents":[2147483647,0,0,2,2],"right_children":[2,-1,4,-1,-1],"split_conditions":[4.102E0,2.9760677E-2,2.93E-1,2.452391E-3,-1.5415332E-2],"split_indices":[4,0,32,0,0],"split_type":[0,0,0,0,0],"sum_hessian":[1.5772236E1,5.0676327E0,1.0704603E1,5.366061E0,5.3385425E0],"tree_param":{"num_deleted":"0","num_feature":"36","num_nodes":"5","size_leaf_vector":"1"}},{"base_weights":[6.29376E-3,-1.6631747E-2,1.9956277E-1,2.3236161E-2,-3.172828E-3],"categories":[],"categories_nodes":[],"categories_segments":[],"categories_sizes":[],"default_left":[0,0,0,0,0],"id":94,"left_children":[1,-1,3,-1,-1],"loss_changes":[1.3740454E0,0E0,1.2990817E0,0E0,0E0],"parents":[2147483647,0,0,2,2],"right_children":[2,-1,4,-1,-1],"split_conditions":[8.6E0,-1.6631747E-2,7.45E-1,2.3236161E-2,-3.172828E-3],"split_indices":[24,0,28,0,0],"split_type":[0,0,0,0,0],"sum_hessian":[1.7965347E1,5.0609255E0,1.2904421E1,6.6089325E0,6.2954884E0],"tree_param":{"num_deleted":"0","num_feature":"36","num_nodes":"5","size_leaf_vector":"1"}},{"base_weights":[-8.8764936E-2,-1.7882695E-2,6.4325817E-3],"categories":[],"categories_nodes":[],"categories_segments":[],"categories_sizes":[],"default_left":[0,0,0],"id":95,"left_children":[1,-1,-1],"loss_changes":[1.3522341E0,0E0,0E0],"parents":[2147483647,0,0],"right_children":[2,-1,-1],"split_conditions":[4.232E0,-1.7882695E-2,6.4325817E-3],"split_indices":[5,0,0],"split_type":[0,0,0],"sum_hessian":[1.7597834E1,8.319021E0,9.278812E0],"tree_param":{"num_deleted":"0","num_feature":"36","num_nodes":"3","size_leaf_vector":"1"}},{"base_weights":[-0E0,-1.20796375E-2,1.0395015E-2],"categories":[],"categories_nodes":[],"categories_segments":[],"categories_sizes":[],"default_left":[0,0,0],"id":96,"left_children":[1,-1,-1],"loss_changes":[1.1091273E0,0E0,0E0],"parents":[2147483647,0,0],"right_children":[2,-1,-1],"split_conditions":[4.224E0,-1.20796375E-2,1.0395015E-2],"split_indices":[5,0,0],"split_type":[0,0,0],"sum_hessian":[1.807782E1,8.226007E0,9.851811E0],"tree_param":{"num_deleted":"0","num_feature":"36","num_nodes":"3","size_leaf_vector":"1"}},{"base_weights":[-6.1913185E-2,-2.801091E-1,1.4267685E-2,-0E0,-2.1940386E-2],"categories":[],"categories_nodes":[],"categories_segments":[],"categories_sizes":[],"default_left":[0,0,0,0,0],"id":97,"left_children":[1,3,-1,-1,-1],"loss_changes":[1.7539154E0,6.285274E-1,0E0,0E0,0E0],"parents":[2147483647,0,0,1,1],"right_children":[2,4,-1,-1,-1],"split_conditions":[2.94E-1,4.116E0,1.4267685E-2,-0E0,-2.1940386E-2],"split_indices":[31,4,0,0,0],"split_type":[0,0,0,0,0],"sum_hessian":[1.9072067E1,1.2834465E1,6.2376027E0,5.5255284E0,7.308937E0],"tree_param":{"num_deleted":"0","num_feature":"36","num_nodes":"5","size_leaf_vector":"1"}},{"base_weights":[3.0210754E-2,-2.1008717E-1,2.136423E-2,2.296455E-4,-2.1374343E-2],"categories":[],"categories_nodes":[],"categories_segments":[],"categories_sizes":[],"default_left":[0,0,0,0,0],"id":98,"left_children":[1,3,-1,-1,-1],"loss_changes":[2.1406446E0,8.0584353E-1,0E0,0E0,0E0],"parents":[2147483647,0,0,1,1],"right_children":[2,4,-1,-1,-1],"split_conditions":[2.93E-1,5.865E-1,2.136423E-2,2.296455E-4,-2.1374343E-2],"split_indices":[31,8,0,0,0],"split_type":[0,0,0,0,0],"sum_hessian":[1.7415104E1,1.0651642E1,6.763462E0,5.1871843E0,5.4644575E0],"tree_param":{"num_deleted":"0","num_feature":"36","num_nodes":"5","size_leaf_vector":"1"}},{"base_weights":[4.317113E-2,-1.7619966E-2,2.846643E-1,-5.1238863E-3,3.5461586E-2],"categories":[],"categories_nodes":[],"categories_segments":[],"categories_sizes":[],"default_left":[0,0,0,0,0],"id":99,"left_children":[1,-1,3,-1,-1],"loss_changes":[2.051707E0,0E0,2.773439E0,0E0,0E0],"parents":[2147483647,0,0,2,2],"right_children":[2,-1,4,-1,-1],"split_conditions":[7.28E-1,-1.7619966E-2,1.24E0,-5.1238863E-3,3.5461586E-2],"split_indices":[29,0,22,0,0],"split_type":[0,0,0,0,0],"sum_hessian":[1.7731936E1,5.588656E0,1.2143279E1,6.529208E0,5.6140714E0],"tree_param":{"num_deleted":"0","num_feature":"36","num_nodes":"5","size_leaf_vector":"1"}},{"base_weights":[7.363707E-3,-1.4924222E-1,1.7022952E-2,1.1879222E-3,-1.8083012E-2],"categories":[],"categories_nodes":[],"categories_segments":[],"categories_sizes":[],"default_left":[0,0,0,0,0],"id":100,"left_children":[1,3,-1,-1,-1],"loss_changes":[1.2347337E0,6.968647E-1,0E0,0E0,0E0],"parents":[2147483647,0,0,1,1],"right_children":[2,4,-1,-1,-1],"split_conditions":[2.94E-1,3.82E0,1.7022952E-2,1.1879222E-3,-1.8083012E-2],"split_indices":[31,18,0,0,0],"split_type":[0,0,0,0,0],"sum_hessian":[1.7888998E1,1.1897964E1,5.9910336E0,6.239088E0,5.6588755E0],"tree_param":{"num_deleted":"0","num_feature":"36","num_nodes":"5","size_leaf_vector":"1"}},{"base_weights":[-2.4279395E-4,1.6511997E-2,-1.0852232E-2],"categories":[],"categories_nodes":[],"categories_segments":[],"categories_sizes":[],"default_left":[0,0,0],"id":101,"left_children":[1,-1,-1],"loss_changes":[1.428027E0,0E0,0E0],"parents":[2147483647,0,0],"right_children":[2,-1,-1],"split_conditions":[4.078E0,1.6511997E-2,-1.0852232E-2],"split_indices":[4,0,0],"split_type":[0,0,0],"sum_hessian":[1.6719957E1,5.29531E0,1.1424648E1],"tree_param":{"num_deleted":"0","num_feature":"36","num_nodes":"3","size_leaf_vector":"1"}},{"base_weights":[-0E0,-1.1683299E-2,1.2117904E-2],"categories":[],"categories_nodes":[],"categories_segments":[],"categories_sizes":[],"default_left":[0,0,0],"id":102,"left_children":[1,-1,-1],"loss_changes":[1.2919807E0,0E0,0E0],"parents":[2147483647,0,0],"right_children":[2,-1,-1],"split_conditions":[4.232E0,-1.1683299E-2,1.2117904E-2],"split_indices":[5,0,0],"split_type":[0,0,0],"sum_hessian":[1.8761374E1,8.867028E0,9.894345E0],"tree_param":{"num_deleted":"0","num_feature":"36","num_nodes":"3","size_leaf_vector":"1"}},{"base_weights":[-7.381688E-2,-1.9277524E-2,8.521621E-3],"categories":[],"categories_nodes":[],"categories_segments":[],"categories_sizes":[],"default_left":[0,0,0],"id":103,"left_children":[1,-1,-1],"loss_changes":[1.6269593E0,0E0,0E0],"parents":[2147483647,0,0],"right_children":[2,-1,-1],"split_conditions":[5.525E-1,-1.9277524E-2,8.521621E-3],"split_indices":[9,0,0],"split_type":[0,0,0],"sum_hessian":[1.622914E1,7.520652E0,8.708488E0],"tree_param":{"num_deleted":"0","num_feature":"36","num_nodes":"3","size_leaf_vector":"1"}},{"base_weights":[1.2955165E-1,3.1873924E-1,-8.057447E-3,2.4060372E-2,9.012601E-5],"categories":[],"categories_nodes":[],"categories_segments":[],"categories_sizes":[],"default_left":[0,0,0,0,0],"id":104,"left_children":[1,3,-1,-1,-1],"loss_changes":[1.210041E0,4.2833042E-1,0E0,0E0,0E0],"parents":[2147483647,0,0,1,1],"right_children":[2,4,-1,-1,-1],"split_conditions":[3.75E0,7.45E-1,-8.057447E-3,2.4060372E-2,9.012601E-5],"split_indices":[26,28,0,0,0],"split_type":[0,0,0,0,0],"sum_hessian":[1.670135E1,1.1042187E1,5.659163E0,5.571768E0,5.4704185E0],"tree_param":{"num_deleted":"0","num_feature":"36","num_nodes":"5","size_leaf_vector":"1"}},{"base_weights":[-2.1241717E-2,1.3861564E-1,-1.8567195E-2,1.615325E-2,-3.2251792E-3],"categories":[],"categories_nodes":[],"categories_segments":[],"categories_sizes":[],"default_left":[0,0,0,0,0],"id":105,"left_children":[1,3,-1,-1,-1],"loss_changes":[1.3370452E0,7.024741E-1,0E0,0E0,0E0],"parents":[2147483647,0,0,1,1],"right_children":[2,4,-1,-1,-1],"split_conditions":[3.75E0,4.8E0,-1.8567195E-2,1.615325E-2,-3.2251792E-3],"split_indices":[26,0,0,0,0],"split_type":[0,0,0,0,0],"sum_hessian":[1.7971498E1,1.2186915E1,5.784583E0,7.05812E0,5.1287956E0],"tree_param":{"num_deleted":"0","num_feature":"36","num_nodes":"5","size_leaf_vector":"1"}},{"base_weights":[-3.8102344E-2,-1.4036736E-2,8.52404E-3],"categories":[],"categories_nodes":[],"categories_segments":[],"categories_sizes":[],"default_left":[0,0,0],"id":106,"left_children":[1,-1,-1],"loss_changes":[1.1088572E0,0E0,0E0],"parents":[2147483647,0,0],"right_children":[2,-1,-1],"split_conditions":[-2E-3,-1.4036736E-2,8.52404E-3],"split_indices":[30,0,0],"split_type":[0,0,0],"sum_hessian":[1.6929638E1,8.614362E0,8.315275E0],"tree_param":{"num_deleted":"0","num_feature":"36","num_nodes":"3","size_leaf_vector":"1"}},{"base_weights":[5.809494E-2,-1.4009656E-2,2.7365452E-1,2.245711E-2,-0E0],"categories":[],"categories_nodes":[],"categories_segments":[],"categories_sizes":[],"default_left":[0,0,0,0,0],"id":107,"left_children":[1,-1,3,-1,-1],"loss_changes":[1.5609467E0,0E0,6.169138E-1,0E0,0E0],"parents":[2147483647,0,0,2,2],"right_children":[2,-1,4,-1,-1],"split_conditions":[-1.6E-1,-1.4009656E-2,4.7E0,2.245711E-2,-0E0],"split_indices":[34,0,1,0,0],"split_type":[0,0,0,0,0],"sum_hessian":[1.7347776E1,5.615646E0,1.1732131E1,6.1558504E0,5.5762806E0],"tree_param":{"num_deleted":"0","num_feature":"36","num_nodes":"5","size_leaf_vector":"1"}},{"base_weights":[-0E0,1.22599695E-2,-1.5787852E-1,-2.2523321E-2,4.523604E-3],"categories":[],"categories_nodes":[],"categories_segments":[],"categories_sizes":[],"default_left":[0,0,0,0,0],"id":108,"left_children":[1,-1,3,-1,-1],"loss_changes":[7.69467E-1,0E0,1.207844E0,0E0,0E0],"parents":[2147483647,0,0,2,2],"right_children":[2,-1,4,-1,-1],"split_conditions":[3.5E0,1.22599695E-2,4.303E0,-2.2523321E-2,4.523604E-3],"split_indices":[25,0,5,0,0],"split_type":[0,0,0,0,0],"sum_hessian":[1.6422443E1,5.3990393E0,1.1023403E1,5.2380023E0,5.7854013E0],"tree_param":{"num_deleted":"0","num_feature":"36","num_nodes":"5","size_leaf_vector":"1"}},{"base_weights":[6.857705E-2,-4.7704848E-3,1.404561E-2],"categories":[],"categories_nodes":[],"categories_segments":[],"categories_sizes":[],"default_left":[0,0,0],"id":109,"left_children":[1,-1,-1],"loss_changes":[8.5828763E-1,0E0,0E0],"parents":[2147483647,0,0],"right_children":[2,-1,-1],"split_conditions":[4.232E0,-4.7704848E-3,1.404561E-2],"split_indices":[5,0,0],"split_type":[0,0,0],"sum_hessian":[1.8446005E1,9.700701E0,8.745304E0],"tree_param":{"num_deleted":"0","num_feature":"36","num_nodes":"3","size_leaf_vector":"1"}},{"base_weights":[1.5048417E-1,3.0791414E-1,-2.9359667E-3,1.5880945E-5,2.2205599E-2],"categories":[],"categories_nodes":[],"categories_segments":[],"categories_sizes":[],"default_left":[0,0,0,0,0],"id":110,"left_children":[1,3,-1,-1,-1],"loss_changes":[8.148662E-1,3.2282352E-1,0E0,0E0,0E0],"parents":[2147483647,0,0,1,1],"right_children":[2,4,-1,-1,-1],"split_conditions":[4.429E0,8.9E0,-2.9359667E-3,1.5880945E-5,2.2205599E-2],"split_indices":[4,24,0,0,0],"split_type":[0,0,0,0,0],"sum_hessian":[1.7860624E1,1.1016682E1,6.843943E0,5.1228213E0,5.8938603E0],"tree_param":{"num_deleted":"0","num_feature":"36","num_nodes":"5","size_leaf_vector":"1"}},{"base_weights":[-0E0,-1.285398E-2,1.5510375E-2],"categories":[],"categories_nodes":[],"categories_segments":[],"categories_sizes":[],"default_left":[0,0,0],"id":111,"left_children":[1,-1,-1],"loss_changes":[1.6519849E0,0E0,0E0],"parents":[2147483647,0,0],"right_children":[2,-1,-1],"split_conditions":[4.232E0,-1.285398E-2,1.5510375E-2],"split_indices":[5,0,0],"split_type":[0,0,0],"sum_hessian":[1.6395443E1,8.307049E0,8.088393E0],"tree_param":{"num_deleted":"0","num_feature":"36","num_nodes":"3","size_leaf_vector":"1"}},{"base_weights":[3.2925114E-2,-7.686253E-3,1.8757643E-1,-1.9717282E-3,2.2981687E-2],"categories":[],"categories_nodes":[],"categories_segments":[],"categories_sizes":[],"default_left":[0,0,0,0,0],"id":112,"left_children":[1,-1,3,-1,-1],"loss_changes":[6.3842154E-1,0E0,1.052183E0,0E0,0E0],"parents":[2147483647,0,0,2,2],"right_children":[2,-1,4,-1,-1],"split_conditions":[4.118E0,-7.686253E-3,2.93E-1,-1.9717282E-3,2.2981687E-2],"split_indices":[5,0,31,0,0],"split_type":[0,0,0,0,0],"sum_hessian":[1.7532719E1,6.4849133E0,1.1047806E1,5.952856E0,5.0949497E0],"tree_param":{"num_deleted":"0","num_feature":"36","num_nodes":"5","size_leaf_vector":"1"}},{"base_weights":[-9.348975E-3,-1.3584817E-2,1.3311262E-1,1.5778719E-2,-6.835226E-4],"categories":[],"categories_nodes":[],"categories_segments":[],"categories_sizes":[],"default_left":[0,0,0,0,0],"id":113,"left_children":[1,-1,3,-1,-1],"loss_changes":[8.40221E-1,0E0,4.868849E-1,0E0,0E0],"parents":[2147483647,0,0,2,2],"right_children":[2,-1,4,-1,-1],"split_conditions":[3.72E0,-1.3584817E-2,-2.1E-2,1.5778719E-2,-6.835226E-4],"split_indices":[19,0,13,0,0],"split_type":[0,0,0,0,0],"sum_hessian":[1.669184E1,6.4708962E0,1.02209425E1,5.0499773E0,5.1709657E0],"tree_param":{"num_deleted":"0","num_feature":"36","num_nodes":"5","size_leaf_vector":"1"}},{"base_weights":[-1.7780344E-1,-1.7779194E-2,1.1443668E-3],"categories":[],"categories_nodes":[],"categories_segments":[],"categories_sizes":[],"default_left":[0,0,0],"id":114,"left_children":[1,-1,-1],"loss_changes":[8.558262E-1,0E0,0E0],"parents":[2147483647,0,0],"right_children":[2,-1,-1],"split_conditions":[4.311E0,-1.7779194E-2,1.1443668E-3],"split_indices":[5,0,0],"split_type":[0,0,0],"sum_hessian":[1.6868332E1,9.447304E0,7.421028E0],"tree_param":{"num_deleted":"0","num_feature":"36","num_nodes":"3","size_leaf_vector":"1"}},{"base_weights":[-4.6170093E-3,-2.4927479E-1,1.8733526E-2,-0E0,-2.2757133E-2],"categories":[],"categories_nodes":[],"categories_segments":[],"categories_sizes":[],"default_left":[0,0,0,0,0],"id":115,"left_children":[1,3,-1,-1,-1],"loss_changes":[1.9701327E0,9.1180444E-1,0E0,0E0,0E0],"parents":[2147483647,0,0,1,1],"right_children":[2,4,-1,-1,-1],"split_conditions":[2.94E-1,8.9E0,1.8733526E-2,-0E0,-2.2757133E-2],"split_indices":[31,23,0,0,0],"split_type":[0,0,0,0,0],"sum_hessian":[1.7893593E1,1.2095358E1,5.798235E0,5.46577E0,6.629588E0],"tree_param":{"num_deleted":"0","num_feature":"36","num_nodes":"5","size_leaf_vector":"1"}},{"base_weights":[1.8290745E-2,-1.437898E-2,2.280407E-1,3.039445E-2,-4.2098174E-3],"categories":[],"categories_nodes":[],"categories_segments":[],"categories_sizes":[],"default_left":[0,0,0,0,0],"id":116,"left_children":[1,-1,3,-1,-1],"loss_changes":[1.3727783E0,0E0,2.0057683E0,0E0,0E0],"parents":[2147483647,0,0,2,2],"right_children":[2,-1,4,-1,-1],"split_conditions":[8.7E0,-1.437898E-2,5.556E-1,3.039445E-2,-4.2098174E-3],"split_indices":[24,0,11,0,0],"split_type":[0,0,0,0,0],"sum_hessian":[1.7817045E1,5.976229E0,1.1840816E1,5.2101054E0,6.6307106E0],"tree_param":{"num_deleted":"0","num_feature":"36","num_nodes":"5","size_leaf_vector":"1"}},{"base_weights":[4.2577956E-2,-1.2138192E-2,1.427159E-2],"categories":[],"categories_nodes":[],"categories_segments":[],"categories_sizes":[],"default_left":[0,0,0],"id":117,"left_children":[1,-1,-1],"loss_changes":[1.5502498E0,0E0,0E0],"parents":[2147483647,0,0],"right_children":[2,-1,-1],"split_conditions":[2.91E-1,-1.2138192E-2,1.427159E-2],"split_indices":[31,0,0],"split_type":[0,0,0],"sum_hessian":[1.8063549E1,7.3589826E0,1.0704567E1],"tree_param":{"num_deleted":"0","num_feature":"36","num_nodes":"3","size_leaf_vector":"1"}},{"base_weights":[-0E0,-1.4886568E-2,2.0522638E-1,2.5527505E-2,-4.4778436E-3],"categories":[],"categories_nodes":[],"categories_segments":[],"categories_sizes":[],"default_left":[0,0,0,0,0],"id":118,"left_children":[1,-1,3,-1,-1],"loss_changes":[1.1931875E0,0E0,1.4542341E0,0E0,0E0],"parents":[2147483647,0,0,2,2],"right_children":[2,-1,4,-1,-1],"split_conditions":[8.7E0,-1.4886568E-2,4.8E0,2.5527505E-2,-4.4778436E-3],"split_indices":[24,0,0,0,0],"split_type":[0,0,0,0,0],"sum_hessian":[1.6180092E1,5.3774724E0,1.080262E1,5.42053E0,5.3820896E0],"tree_param":{"num_deleted":"0","num_feature":"36","num_nodes":"5","size_leaf_vector":"1"}},{"base_weights":[9.332389E-2,-9.121273E-3,2.6080623E-1,-2.8826608E-4,2.8623236E-2],"categories":[],"categories_nodes":[],"categories_segments":[],"categories_sizes":[],"default_left":[0,0,0,0,0],"id":119,"left_children":[1,-1,3,-1,-1],"loss_changes":[1.0096397E0,0E0,1.431654E0,0E0,0E0],"parents":[2147483647,0,0,2,2],"right_children":[2,-1,4,-1,-1],"split_conditions":[3.5E0,-9.121273E-3,5.123E-1,-2.8826608E-4,2.8623236E-2],"split_indices":[26,0,12,0,0],"split_type":[0,0,0,0,0],"sum_hessian":[1.6952673E1,5.2103386E0,1.1742334E1,6.522291E0,5.220043E0],"tree_param":{"num_deleted":"0","num_feature":"36","num_nodes":"5","size_leaf_vector":"1"}},{"base_weights":[8.490192E-2,-6.6099666E-2,2.1810101E-2,-2.0524805E-2,8.5878605E-3],"categories":[],"categories_nodes":[],"categories_segments":[],"categories_sizes":[],"default_left":[0,0,0,0,0],"id":120,"left_children":[1,3,-1,-1,-1],"loss_changes":[1.2882788E0,1.4503324E0,0E0,0E0,0E0],"parents":[2147483647,0,0,1,1],"right_children":[2,4,-1,-1,-1],"split_conditions":[8E-3,2.92E-1,2.1810101E-2,-2.0524805E-2,8.5878605E-3],"split_indices":[30,31,0,0,0],"split_type":[0,0,0,0,0],"sum_hessian":[1.7710155E1,1.2526297E1,5.1838584E0,5.3828588E0,7.1434383E0],"tree_param":{"num_deleted":"0","num_feature":"36","num_nodes":"5","size_leaf_vector":"1"}},{"base_weights":[-3.771838E-2,1.07077785E-1,-1.5705636E-2,-8.640499E-3,2.0180086E-2],"categories":[],"categories_nodes":[],"categories_segments":[],"categories_sizes":[],"default_left":[0,0,0,0,0],"id":121,"left_children":[1,3,-1,-1,-1],"loss_changes":[9.223996E-1,1.3029821E0,0E0,0E0,0E0],"parents":[2147483647,0,0,1,1],"right_children":[2,4,-1,-1,-1],"split_conditions":[3.75E0,3.5E0,-1.5705636E-2,-8.640499E-3,2.0180086E-2],"split_indices":[26,26,0,0,0],"split_type":[0,0,0,0,0],"sum_hessian":[1.6780542E1,1.0628634E1,6.1519074E0,5.0295167E0,5.5991173E0],"tree_param":{"num_deleted":"0","num_feature":"36","num_nodes":"5","size_leaf_vector":"1"}},{"base_weights":[2.790596E-2,1.39652435E-2,-9.206187E-2,-1.6589884E-2,6.312673E-3],"categories":[],"categories_nodes":[],"categories_segments":[],"categories_sizes":[],"default_left":[0,0,0,0,0],"id":122,"left_children":[1,-1,3,-1,-1],"loss_changes":[7.187388E-1,0E0,8.687625E-1,0E0,0E0],"parents":[2147483647,0,0,2,2],"right_children":[2,-1,4,-1,-1],"split_conditions":[4.102E0,1.39652435E-2,2.93E-1,-1.6589884E-2,6.312673E-3],"split_indices":[4,0,31,0,0],"split_type":[0,0,0,0,0],"sum_hessian":[1.7021713E1,5.9870305E0,1.1034682E1,5.8554068E0,5.179276E0],"tree_param":{"num_deleted":"0","num_feature":"36","num_nodes":"5","size_leaf_vector":"1"}},{"base_weights":[-0E0,7.467019E-3,-1.3547E-1,-1.3452296E-2,-0E0],"categories":[],"categories_nodes":[],"categories_segments":[],"categories_sizes":[],"default_left":[0,0,0,0,0],"id":123,"left_children":[1,-1,3,-1,-1],"loss_changes":[4.3176907E-1,0E0,3.0279118E-1,0E0,0E0],"parents":[2147483647,0,0,2,2],"right_children":[2,-1,4,-1,-1],"split_conditions":[2.91E-1,7.467019E-3,4.425E0,-1.3452296E-2,-0E0],"split_indices":[32,0,5,0,0],"split_type":[0,0,0,0,0],"sum_hessian":[1.7550022E1,7.183923E0,1.0366098E1,5.3182306E0,5.047868E0],"tree_param":{"num_deleted":"0","num_feature":"36","num_nodes":"5","size_leaf_vector":"1"}},{"base_weights":[4.9415406E-2,1.4415092E-2,-4.6459634E-2,-1.3314013E-2,7.6155686E-3],"categories":[],"categories_nodes":[],"categories_segments":[],"categories_sizes":[],"default_left":[0,0,0,0,0],"id":124,"left_children":[1,-1,3,-1,-1],"loss_changes":[5.8408964E-1,0E0,7.4217814E-1,0E0,0E0],"parents":[2147483647,0,0,2,2],"right_children":[2,-1,4,-1,-1],"split_conditions":[4.067E0,1.4415092E-2,8.879E0,-1.3314013E-2,7.6155686E-3],"split_indices":[4,0,7,0,0],"split_type":[0,0,0,0,0],"sum_hessian":[1.7053185E1,5.227965E0,1.1825219E1,6.4872103E0,5.3380084E0],"tree_param":{"num_deleted":"0","num_feature":"36","num_nodes":"5","size_leaf_vector":"1"}},{"base_weights":[-1.1189743E-2,1.2787431E-2,-2.1962805E-1,-0E0,-1.890955E-2],"categories":[],"categories_nodes":[],"categories_segments":[],"categories_sizes":[],"default_left":[0,0,0,0,0],"id":125,"left_children":[1,-1,3,-1,-1],"loss_changes":[1.1569732E0,0E0,4.5521325E-1,0E0,0E0],"parents":[2147483647,0,0,2,2],"right_children":[2,-1,4,-1,-1],"split_conditions":[4.116E0,1.2787431E-2,-3.21E-2,-0E0,-1.890955E-2],"split_indices":[4,0,13,0,0],"split_type":[0,0,0,0,0],"sum_hessian":[1.7099407E1,6.2467327E0,1.0852675E1,5.3354216E0,5.5172534E0],"tree_param":{"num_deleted":"0","num_feature":"36","num_nodes":"5","size_leaf_vector":"1"}},{"base_weights":[2.511213E-2,-1.0741239E-2,1.9072707E-1,-7.273645E-3,2.6239162E-2],"categories":[],"categories_nodes":[],"categories_segments":[],"categories_sizes":[],"default_left":[0,0,0,0,0],"id":126,"left_children":[1,-1,3,-1,-1],"loss_changes":[8.696222E-1,0E0,1.9370353E0,0E0,0E0],"parents":[2147483647,0,0,2,2],"right_children":[2,-1,4,-1,-1],"split_conditions":[-3.21E-2,-1.0741239E-2,7.28E-1,-7.273645E-3,2.6239162E-2],"split_indices":[14,0,29,0,0],"split_type":[0,0,0,0,0],"sum_hessian":[1.8125387E1,5.9262834E0,1.2199103E1,5.896779E0,6.3023243E0],"tree_param":{"num_deleted":"0","num_feature":"36","num_nodes":"5","size_leaf_vector":"1"}},{"base_weights":[-2.013087E-2,-1.0822586E-2,8.417708E-3],"categories":[],"categories_nodes":[],"categories_segments":[],"categories_sizes":[],"default_left":[0,0,0],"id":127,"left_children":[1,-1,-1],"loss_changes":[7.946255E-1,0E0,0E0],"parents":[2147483647,0,0],"right_children":[2,-1,-1],"split_conditions":[4E-3,-1.0822586E-2,8.417708E-3],"split_indices":[30,0,0],"split_type":[0,0,0],"sum_hessian":[1.6854836E1,9.409811E0,7.4450235E0],"tree_param":{"num_deleted":"0","num_feature":"36","num_nodes":"3","size_leaf_vector":"1"}},{"base_weights":[-0E0,-1.2205246E-2,1.4717902E-1,1.6276564E-2,-0E0],"categories":[],"categories_nodes":[],"categories_segments":[],"categories_sizes":[],"default_left":[0,0,0,0,0],"id":128,"left_children":[1,-1,3,-1,-1],"loss_changes":[7.353082E-1,0E0,4.8024666E-1,0E0,0E0],"parents":[2147483647,0,0,2,2],"right_children":[2,-1,4,-1,-1],"split_conditions":[-3.21E-2,-1.2205246E-2,-4E-2,1.6276564E-2,-0E0],"split_indices":[14,0,20,0,0],"split_type":[0,0,0,0,0],"sum_hessian":[1.6105381E1,5.9047546E0,1.0200627E1,5.0258408E0,5.1747866E0],"tree_param":{"num_deleted":"0","num_feature":"36","num_nodes":"5","size_leaf_vector":"1"}},{"base_weights":[-2.3942078E-2,-1.8326698E-1,9.357011E-3,-0E0,-1.6859708E-2],"categories":[],"categories_nodes":[],"categories_segments":[],"categories_sizes":[],"default_left":[0,0,0,0,0],"id":129,"left_children":[1,3,-1,-1,-1],"loss_changes":[6.8151253E-1,4.177357E-1,0E0,0E0,0E0],"parents":[2147483647,0,0,1,1],"right_children":[2,4,-1,-1,-1],"split_conditions":[2.94E-1,4.2E0,9.357011E-3,-0E0,-1.6859708E-2],"split_indices":[31,5,0,0,0],"split_type":[0,0,0,0,0],"sum_hessian":[1.6282597E1,1.0778943E1,5.5036526E0,5.330042E0,5.4489017E0],"tree_param":{"num_deleted":"0","num_feature":"36","num_nodes":"5","size_leaf_vector":"1"}},{"base_weights":[-9.138507E-2,-2.2929331E-2,8.9947194E-2,1.647936E-2,-4.946125E-3],"categories":[],"categories_nodes":[],"categories_segments":[],"categories_sizes":[],"default_left":[0,0,0,0,0],"id":130,"left_children":[1,-1,3,-1,-1],"loss_changes":[1.4711562E0,0E0,7.629758E-1,0E0,0E0],"parents":[2147483647,0,0,2,2],"right_children":[2,-1,4,-1,-1],"split_conditions":[4.157E0,-2.2929331E-2,1.04E0,1.647936E-2,-4.946125E-3],"split_indices":[5,0,33,0,0],"split_type":[0,0,0,0,0],"sum_hessian":[1.6087114E1,5.2186465E0,1.0868468E1,5.3004384E0,5.5680294E0],"tree_param":{"num_deleted":"0","num_feature":"36","num_nodes":"5","size_leaf_vector":"1"}},{"base_weights":[-1.08091384E-1,-3.147991E-1,1.1638879E-2,-0E0,-2.2977425E-2],"categories":[],"categories_nodes":[],"categories_segments":[],"categories_sizes":[],"default_left":[0,0,0,0,0],"id":131,"left_children":[1,3,-1,-1,-1],"loss_changes":[1.4842849E0,3.8520384E-1,0E0,0E0,0E0],"parents":[2147483647,0,0,1,1],"right_children":[2,4,-1,-1,-1],"split_conditions":[2.94E-1,8.323E0,1.1638879E-2,-0E0,-2.2977425E-2],"split_indices":[31,7,0,0,0],"split_type":[0,0,0,0,0],"sum_hessian":[1.6403538E1,1.121961E1,5.1839285E0,5.192295E0,6.027315E0],"tree_param":{"num_deleted":"0","num_feature":"36","num_nodes":"5","size_leaf_vector":"1"}},{"base_weights":[-0E0,1.8796955E-1,-1.3693376E-2,-0E0,1.5930705E-2],"categories":[],"categories_nodes":[],"categories_segments":[],"categories_sizes":[],"default_left":[0,0,0,0,0],"id":132,"left_children":[1,3,-1,-1,-1],"loss_changes":[1.0582318E0,3.0752707E-1,0E0,0E0,0E0],"parents":[2147483647,0,0,1,1],"right_children":[2,4,-1,-1,-1],"split_conditions":[4.429E0,8.216E0,-1.3693376E-2,-0E0,1.5930705E-2],"split_indices":[4,7,0,0,0],"split_type":[0,0,0,0,0],"sum_hessian":[1.6912409E1,1.0862596E1,6.0498133E0,5.3563576E0,5.506238E0],"tree_param":{"num_deleted":"0","num_feature":"36","num_nodes":"5","size_leaf_vector":"1"}},{"base_weights":[-3.6296275E-2,-1.1790894E-2,8.608925E-3],"categories":[],"categories_nodes":[],"categories_segments":[],"categories_sizes":[],"default_left":[0,0,0],"id":133,"left_children":[1,-1,-1],"loss_changes":[8.6451715E-1,0E0,0E0],"parents":[2147483647,0,0],"right_children":[2,-1,-1],"split_conditions":[5E-3,-1.1790894E-2,8.608925E-3],"split_indices":[30,0,0],"split_type":[0,0,0],"sum_hessian":[1.6066782E1,9.301143E0,6.76564E0],"tree_param":{"num_deleted":"0","num_feature":"36","num_nodes":"3","size_leaf_vector":"1"}},{"base_weights":[-0E0,1.0606978E-2,-1.2609039E-2],"categories":[],"categories_nodes":[],"categories_segments":[],"categories_sizes":[],"default_left":[0,0,0],"id":134,"left_children":[1,-1,-1],"loss_changes":[1.0664779E0,0E0,0E0],"parents":[2147483647,0,0],"right_children":[2,-1,-1],"split_conditions":[3.75E0,1.0606978E-2,-1.2609039E-2],"split_indices":[26,0,0],"split_type":[0,0,0],"sum_hessian":[1.6201284E1,9.737652E0,6.463633E0],"tree_param":{"num_deleted":"0","num_feature":"36","num_nodes":"3","size_leaf_vector":"1"}},{"base_weights":[8.4120736E-2,2.8578037E-1,-1.0349658E-2,-0E0,2.8545707E-2],"categories":[],"categories_nodes":[],"categories_segments":[],"categories_sizes":[],"default_left":[0,0,0,0,0],"id":135,"left_children":[1,3,-1,-1,-1],"loss_changes":[1.2990357E0,1.2737713E0,0E0,0E0,0E0],"parents":[2147483647,0,0,1,1],"right_children":[2,4,-1,-1,-1],"split_conditions":[3.75E0,3.75E0,-1.0349658E-2,-0E0,2.8545707E-2],"split_indices":[26,17,0,0,0],"split_type":[0,0,0,0,0],"sum_hessian":[1.7441532E1,1.1340178E1,6.1013536E0,6.0896173E0,5.2505603E0],"tree_param":{"num_deleted":"0","num_feature":"36","num_nodes":"5","size_leaf_vector":"1"}},{"base_weights":[-1.24116475E-2,-1.0168969E-2,5.6765047E-3],"categories":[],"categories_nodes":[],"categories_segments":[],"categories_sizes":[],"default_left":[0,0,0],"id":136,"left_children":[1,-1,-1],"loss_changes":[5.6283474E-1,0E0,0E0],"parents":[2147483647,0,0],"right_children":[2,-1,-1],"split_conditions":[2.92E-1,-1.0168969E-2,5.6765047E-3],"split_indices":[31,0,0],"split_type":[0,0,0],"sum_hessian":[1.7613926E1,8.088914E0,9.525011E0],"tree_param":{"num_deleted":"0","num_feature":"36","num_nodes":"3","size_leaf_vector":"1"}},{"base_weights":[-4.8168115E-2,-1.3785019E-2,7.814996E-3],"categories":[],"categories_nodes":[],"categories_segments":[],"categories_sizes":[],"default_left":[0,0,0],"id":137,"left_children":[1,-1,-1],"loss_changes":[1.0837758E0,0E0,0E0],"parents":[2147483647,0,0],"right_children":[2,-1,-1],"split_conditions":[-2E-3,-1.3785019E-2,7.814996E-3],"split_indices":[30,0,0],"split_type":[0,0,0],"sum_hessian":[1.8159712E1,9.422716E0,8.736997E0],"tree_param":{"num_deleted":"0","num_feature":"36","num_nodes":"3","size_leaf_vector":"1"}},{"base_weights":[-6.659494E-2,-1.8524176E-2,7.614477E-3],"categories":[],"categories_nodes":[],"categories_segments":[],"categories_sizes":[],"default_left":[0,0,0],"id":138,"left_children":[1,-1,-1],"loss_changes":[1.4739466E0,0E0,0E0],"parents":[2147483647,0,0],"right_children":[2,-1,-1],"split_conditions":[4.224E0,-1.8524176E-2,7.614477E-3],"split_indices":[5,0,0],"split_type":[0,0,0],"sum_hessian":[1.6822517E1,7.4200263E0,9.402491E0],"tree_param":{"num_deleted":"0","num_feature":"36","num_nodes":"3","size_leaf_vector":"1"}},{"base_weights":[-3.4747038E-2,-1.051527E-2,5.6971107E-3],"categories":[],"categories_nodes":[],"categories_segments":[],"categories_sizes":[],"default_left":[0,0,0],"id":139,"left_children":[1,-1,-1],"loss_changes":[6.066188E-1,0E0,0E0],"parents":[2147483647,0,0],"right_children":[2,-1,-1],"split_conditions":[4.232E0,-1.051527E-2,5.6971107E-3],"split_indices":[5,0,0],"split_type":[0,0,0],"sum_hessian":[1.7557117E1,9.21309E0,8.344027E0],"tree_param":{"num_deleted":"0","num_feature":"36","num_nodes":"3","size_leaf_vector":"1"}},{"base_weights":[4.525359E-2,-1.1945504E-2,2.1714199E-1,-8.013756E-3,2.6880002E-2],"categories":[],"categories_nodes":[],"categories_segments":[],"categories_sizes":[],"default_left":[0,0,0,0,0],"id":140,"left_children":[1,-1,3,-1,-1],"loss_changes":[1.025469E0,0E0,2.059197E0,0E0,0E0],"parents":[2147483647,0,0,2,2],"right_children":[2,-1,4,-1,-1],"split_conditions":[-3.21E-2,-1.1945504E-2,7.28E-1,-8.013756E-3,2.6880002E-2],"split_indices":[14,0,29,0,0],"split_type":[0,0,0,0,0],"sum_hessian":[1.7093231E1,5.052241E0,1.2040991E1,5.271714E0,6.7692766E0],"tree_param":{"num_deleted":"0","num_feature":"36","num_nodes":"5","size_leaf_vector":"1"}},{"base_weights":[-0E0,-1.6562589E-2,2.5137082E-1,2.6971046E-2,-2.4252732E-3],"categories":[],"categories_nodes":[],"categories_segments":[],"categories_sizes":[],"default_left":[0,0,0,0,0],"id":141,"left_children":[1,-1,3,-1,-1],"loss_changes":[1.7280343E0,0E0,1.3975174E0,0E0,0E0],"parents":[2147483647,0,0,2,2],"right_children":[2,-1,4,-1,-1],"split_conditions":[3.72E0,-1.6562589E-2,5.238E-1,2.6971046E-2,-2.4252732E-3],"split_indices":[19,0,35,0,0],"split_type":[0,0,0,0,0],"sum_hessian":[1.7148336E1,6.4169445E0,1.0731392E1,5.509194E0,5.222198E0],"tree_param":{"num_deleted":"0","num_feature":"36","num_nodes":"5","size_leaf_vector":"1"}},{"base_weights":[2.862819E-2,-7.3714815E-3,1.0615254E-2],"categories":[],"categories_nodes":[],"categories_segments":[],"categories_sizes":[],"default_left":[0,0,0],"id":142,"left_children":[1,-1,-1],"loss_changes":[6.61467E-1,0E0,0E0],"parents":[2147483647,0,0],"right_children":[2,-1,-1],"split_conditions":[4.232E0,-7.3714815E-3,1.0615254E-2],"split_indices":[5,0,0],"split_type":[0,0,0],"sum_hessian":[1.5516034E1,6.733938E0,8.782096E0],"tree_param":{"num_deleted":"0","num_feature":"36","num_nodes":"3","size_leaf_vector":"1"}},{"base_weights":[-3.962039E-2,-1.4351511E-2,7.1206585E-2,1.6100876E-2,-5.7470086E-3],"categories":[],"categories_nodes":[],"categories_segments":[],"categories_sizes":[],"default_left":[0,0,0,0,0],"id":143,"left_children":[1,-1,3,-1,-1],"loss_changes":[6.6589177E-1,0E0,7.953E-1,0E0,0E0],"parents":[2147483647,0,0,2,2],"right_children":[2,-1,4,-1,-1],"split_conditions":[8.7E0,-1.4351511E-2,5.556E-1,1.6100876E-2,-5.7470086E-3],"split_indices":[24,0,11,0,0],"split_type":[0,0,0,0,0],"sum_hessian":[1.685883E1,5.627581E0,1.123125E1,5.306965E0,5.9242845E0],"tree_param":{"num_deleted":"0","num_feature":"36","num_nodes":"5","size_leaf_vector":"1"}},{"base_weights":[-0E0,1.2200299E-2,-1.7088361E-1,3.5296672E-3,-2.183644E-2],"categories":[],"categories_nodes":[],"categories_segments":[],"categories_sizes":[],"default_left":[0,0,0,0,0],"id":144,"left_children":[1,-1,3,-1,-1],"loss_changes":[8.190812E-1,0E0,1.0237623E0,0E0,0E0],"parents":[2147483647,0,0,2,2],"right_children":[2,-1,4,-1,-1],"split_conditions":[7.32E-1,1.2200299E-2,3.72E0,3.5296672E-3,-2.183644E-2],"split_indices":[28,0,18,0,0],"split_type":[0,0,0,0,0],"sum_hessian":[1.5940566E1,5.805219E0,1.0135346E1,5.095257E0,5.04009E0],"tree_param":{"num_deleted":"0","num_feature":"36","num_nodes":"5","size_leaf_vector":"1"}},{"base_weights":[1.2575208E-1,-6.0098036E-3,1.5936587E-2],"categories":[],"categories_nodes":[],"categories_segments":[],"categories_sizes":[],"default_left":[0,0,0],"id":145,"left_children":[1,-1,-1],"loss_changes":[1.029726E0,0E0,0E0],"parents":[2147483647,0,0],"right_children":[2,-1,-1],"split_conditions":[3.72E0,-6.0098036E-3,1.5936587E-2],"split_indices":[19,0,0],"split_type":[0,0,0],"sum_hessian":[1.5989547E1,6.222491E0,9.767056E0],"tree_param":{"num_deleted":"0","num_feature":"36","num_nodes":"3","size_leaf_vector":"1"}},{"base_weights":[-4.5548838E-2,-1.72462E-2,1.1141855E-1,1.8080072E-2,-4.797557E-3],"categories":[],"categories_nodes":[],"categories_segments":[],"categories_sizes":[],"default_left":[0,0,0,0,0],"id":146,"left_children":[1,-1,3,-1,-1],"loss_changes":[1.0359102E0,0E0,8.3385277E-1,0E0,0E0],"parents":[2147483647,0,0,2,2],"right_children":[2,-1,4,-1,-1],"split_conditions":[3.72E0,-1.72462E-2,3.75E0,1.8080072E-2,-4.797557E-3],"split_indices":[19,0,26,0,0],"split_type":[0,0,0,0,0],"sum_hessian":[1.5924181E1,5.74933E0,1.0174851E1,5.030006E0,5.144845E0],"tree_param":{"num_deleted":"0","num_feature":"36","num_nodes":"5","size_leaf_vector":"1"}},{"base_weights":[1.4202324E-2,-1.3442581E-2,2.1377562E-1,-8.8892855E-5,2.1282485E-2],"categories":[],"categories_nodes":[],"categories_segments":[],"categories_sizes":[],"default_left":[0,0,0,0,0],"id":147,"left_children":[1,-1,3,-1,-1],"loss_changes":[1.1259383E0,0E0,8.040669E-1,0E0,0E0],"parents":[2147483647,0,0,2,2],"right_children":[2,-1,4,-1,-1],"split_conditions":[8.7E0,-1.3442581E-2,3.72E0,-8.8892855E-5,2.1282485E-2],"split_indices":[24,0,19,0,0],"split_type":[0,0,0,0,0],"sum_hessian":[1.6384287E1,5.4520535E0,1.0932233E1,5.232346E0,5.699887E0],"tree_param":{"num_deleted":"0","num_feature":"36","num_nodes":"5","size_leaf_vector":"1"}},{"base_weights":[-8.234392E-2,8.40243E-3,-1.3240794E-2],"categories":[],"categories_nodes":[],"categories_segments":[],"categories_sizes":[],"default_left":[0,0,0],"id":148,"left_children":[1,-1,-1],"loss_changes":[9.8610437E-1,0E0,0E0],"parents":[2147483647,0,0],"right_children":[2,-1,-1],"split_conditions":[4.102E0,8.40243E-3,-1.3240794E-2],"split_indices":[4,0,0],"split_type":[0,0,0],"sum_hessian":[1.657571E1,5.8989563E0,1.0676754E1],"tree_param":{"num_deleted":"0","num_feature":"36","num_nodes":"3","size_leaf_vector":"1"}},{"base_weights":[-5.2457318E-2,-1.5959365E-2,8.136972E-3],"categories":[],"categories_nodes":[],"categories_segments":[],"categories_sizes":[],"default_left":[0,0,0],"id":149,"left_children":[1,-1,-1],"loss_changes":[1.2943394E0,0E0,0E0],"parents":[2147483647,0,0],"right_children":[2,-1,-1],"split_conditions":[-2.48E-2,-1.5959365E-2,8.136972E-3],"split_indices":[14,0,0],"split_type":[0,0,0],"sum_hessian":[1.7376968E1,8.365351E0,9.011619E0],"tree_param":{"num_deleted":"0","num_feature":"36","num_nodes":"3","size_leaf_vector":"1"}}]},"name":"gbtree"},"learner_model_param":{"base_score":"[4.9E-1]","boost_from_average":"1","num_class":"0","num_feature":"36","num_target":"1"},"objective":{"name":"binary:logistic","reg_loss_param":{"scale_pos_weight":"1"}}},"version":[3,2,0]}